tree
version=v4
num_class=1
num_tree_per_iteration=1
label_index=0
max_feature_idx=44
objective=regression
feature_names=Column_0 Column_1 Column_2 Column_3 Column_4 Column_5 Column_6 Column_7 Column_8 Column_9 Column_10 Column_11 Column_12 Column_13 Column_14 Column_15 Column_16 Column_17 Column_18 Column_19 Column_20 Column_21 Column_22 Column_23 Column_24 Column_25 Column_26 Column_27 Column_28 Column_29 Column_30 Column_31 Column_32 Column_33 Column_34 Column_35 Column_36 Column_37 Column_38 Column_39 Column_40 Column_41 Column_42 Column_43 Column_44
feature_infos=[-1.3631519622912183:1.4477917819448713] [-1.6149456797967521:2.7163085781994805] [-2.8779002230445845:1.3394761905413348] [-1.2460045270293612:2.9153950007277909] [-1.032458217348488:5.9178038483144988] [-1.5626971312584597:2.7613066252678613] [-1.7986785376870122:3.5909222929883575] [-1.5218748186164481:1.5072360089820753] [-1.1479334323436026:3.6928855471494137] [-1.9877458987207282:2.35649759198692] [-6.4439213260906936:1.8641998348407776] [-4.4637565333559914:2.0100387399354167] [-1.9877458987207282:2.35649759198692] [-2.0100387399354207:4.4637565333559914] [-2.3133950501955987:1.2404183868462557] [-1.9746900907507283:1.396554249514812] [-1.7181563083386906:4.1134024220552758] [-1.6319933993356777:4.3713594212094886] [-31.204569892513991:1.5534163789629076] [-3.6828692414533348:1.726712455532345] [-3.5999477389169918:1.6835105902897221] [-3.2163470092714546:2.863043420372509] [-2.8615847626451454:2.0741972604466161] [-1.1305795611129092:0.94377938595067201] [-2.2166535122336226:2.0714285714285716] [-2.1114808652246255:2.0316139767054908] [-2.4648318042813457:1.620795107033639] [-2.2811059907834101:2.2626728110599079] [-3.5408314449025382:3.2627705515149295] [-2.3850038058507321:1.8396543684140045] [-2.7825871774454329:1.5636322497583048] [-2.5368482046467959:2.1305873064435699] [-2.179144385026738:2.248663101604278] [-1.8083832335329342:1.8163672654690619] [-2.1205211726384365:1.9837133550488599] [-2.3583837131358356:2.1354914396887921] [-1.9666885362083557:1.6913740219278475] [-2.3251115712442352:1.9400458305819888] [-2.3035655145515226:1.4036569128048821] [-2.0030035208352497:1.6977359518758599] [-2.1285564061456408:1.6970072926538777] [-2.0450265006139015:1.8577086884926766] [-2.0260789937130874:1.4729231399244376] [-1.9387689437817188:1.7826940610966509] [-2.1856314084374433:2.0896781054208957]
tree_sizes=2759 2704 2780 2732 2715 2806 2723 2739 2730 2726 2755 2647 2711 2737 2759 2713 2734 2751 2726 2745 2773 2745 2759 2792 2793 2794 2792 2795 2781 2752 2771 2820 2728 2747 2796 2706 2747 2803 2791 2762 2746 2765 2782 2779 2740 2638 2767 2754 2709 2772 2731 2760 2748 2769 2722 2759 2805 2761 2773 2725 2778 2767 2781 2787 2717 2687 2817 2725 2781 2769 2755 2801 2716 2757 2843 2801 2765 2697 2736 2692 2792 2740 2728 2759 2696 2706 2816 2777 2717 2726 2763 2791 2791 2719 2732 2737 2800 2726 2708 2759 2788 2767 2783 2757 2702 2690 2733 2763 2796 2711 2769 2691 2459 2625 2667 2799 2710 2784 2619 2615 2613 2736 2746 2747 2693 2714 2686 2776 2694 2711 2741 2733 2758 2678 2720 2752 2712 2643 2765 2705 2768 2720 2738 2754 2727 2706 2717 2732 2725 2722 2666 2749 2716 2738 2730 2695 2751 2757 2714 2706 2727 2704 2740 2724 2675 2724 2735 2756 2671 2678 2719 2712 2682 2783 2737 2787 2669 2811 2685 2749 2664 2819 2647 2769 2646 2716 2626 2712 2695 2764 2660 2754 2736 2743 2688 2773 2630 2747 2720 2680 2776 2770 2731 2776 2736 2702 2686 2630 2620 2668 2691 2712 2780 2817 2670 2627 2660 2720 2773 2647 2722 2768 2721 2722 2799 2704 2744 2735 2677 2737 2784 2731 2774 2753 2693 2774 2654 2757 2727 2734 2754 2716 2756 2725 2747 2743 2712 2711 2744 2694 2725 2717 2710 2681 2755 2719 2733 2687 2740 2695 2751 2749 2699 2715 2679 2757 2658 2792 2621 2708 2777 2716 2685 2795 2693 2692 2694 2696 2638 2734 2715 2697 2752 2698 2620 2787 2638 2726 2732 2697 2627 2668 2741 2754 2763 2736 2725 2692 2673 2711 2611 2709 2691 2724 2684 2694 2748 2744 2699 2779 2660 2749 2582 2686 2763 2738 2702 2718 2753 2693 2657 2712 2703 2691 2650 2779 2673 2537 2745 2745 2740 2654 2763 2627 2712 2699 2678 2733 2534 2731 2694 2663 2706 2702 2825 2611 2663 2654 2809 2742 2694 2739 2723 2730 2710 2738 2675 2654 2691 2642 2652 2671 2789 2651 2655 2679 2692 2689 2685 2679 2631 2651 2710 2669 2689 2641 2757 2645 2585 2675 2697 2657 2673 2674 2688 2628 2665 2658 2733 2738 2656 2634 2709 2631 2642 2738 2653 2653 2660 2701 2666 2675 2715 2806 2734 2706 2681 2694 2798 2703 2676 2685 2590 2703 2712 2600 2633 2707 2656 2709 2641 2637 2630 2636 2673 2676 2561 2689 2667 2686 2741 2608 2659 2545 2650 2687 2738 2666 2545 2776 2715 2712 2670 2723 2716 2544 2756 2714 2648 2710 2757 2710 2690 2707 2725 2683 2660 2705 1930 2535 2726 2704 2753 2651 1859 2647 2691 2684 2650 2729 2512 2655 1936 2660 2669 2472 2654 2620 2730 2697 2599 2612 2376 2573 2709 2638 1864 2310 2704 2663 2706 2596 2586 2124 2665 2131 2555 2585 2246 2605 2688 2639 2707 2692 2684 2676 2671 2133 2678 2596 2694 2692 2684 2734 2329 2668 2675 2329 2563 2536 2675 2356 2708 2566 2331 2663 2674 2722 2419 2543 2661 2574 2580 2357 2558 2641 2663 2553 2650 2649 2624 2554 2675 2651 2340 2562 2603 1905 2327 2578 2618 2591 2649 2653 2711 2648 2642 2325 2594 2348 2637 2318 2560 2679 2633 2316 2700 2621 2552 2680 2323 2627 2613 2616 2081 2577 2632 2674 2314 2736 2080 2603 2511 2699 2586 2644 2073 2604 2616 2395 2603 2429 2737 2588 2683 2621 2080 2622 2703 2619 2405 2323 2619 2080 2610 2666 2667 2383 2607 2686 2634 2085 2432 2616 2585 2388 2318 2634 2389 2673 2606 2525 2618 2654 2645 2360 2660 2674 2300 2674 2606 2689 2659 2706 2583 2607 2631 2578 2717 2687 2627 2739 2595 2497 2420 2626 2689 2721 2613 2645 2752 2569 2654 2584 2626 2610 2667 2635 2597 2685 2668 2663 2709 2674 2500 2663 2689 2619 2253 2669 2237 2649 2650 2578 2643 2697 2663 2663 2649 2686 2682 2711 2672 2625 2511 2620 2660 2651 2672 2678 2644 2679 2261 2445 2395 2573 2675 2685 2664 2649 2714 2661 2677 2618 2677 2690 2703 2636 2436

Tree=0
num_leaves=31
num_cat=0
split_feature=14 14 14 1 1 2 0 2 0 5 30 2 8 1 5 39 8 3 5 7 2 17 8 11 8 36 26 5 25 5
split_gain=135.553 27.5759 22.2983 4.39517 2.78815 1.94124 1.253 1.08571 0.985936 1.52746 0.870341 1.3787 0.887292 0.806094 0.726514 0.585367 0.568957 0.49283 0.71383 0.405723 0.732647 0.40498 0.295493 0.261335 0.248173 0.118076 0.194579 1.27871 0.100749 0.100686
threshold=0.52168204982502331 -0.38110936808137263 1.0343579194185566 -0.2287852384987028 -0.94091575623856516 0.13364496255252276 -0.16999692591454038 -0.35498252293051397 -0.14555794651091297 -0.18206495623674204 -0.48091754268995618 0.38079474623456205 0.32542968579063941 -1.3387286154332736 0.33007667465336504 1.0000000180025095e-35 -0.18237151828651244 -0.91774539309108749 -0.72470400196289986 -0.53682833052660184 -0.10361026000316949 -0.26175669976006471 0.11757925120756692 0.55079372004119265 0.77771031018617187 -0.14920709693029274 -0.8445463812436288 0.13683561561795768 0.197171381031614 0.23337453624009619
decision_type=2 2 2 2 2 2 2 2 2 2 2 2 2 2 2 2 2 2 2 2 2 2 2 2 2 2 2 2 2 2
left_child=1 15 4 5 -2 22 19 17 9 -7 11 -8 -12 -4 -10 25 21 -6 -19 28 -21 -9 23 -3 -17 26 -1 -28 -5 -24
right_child=2 3 13 6 7 8 10 16 14 -11 12 -13 -14 -15 -16 24 -18 18 -20 20 -22 -23 29 -25 -26 -27 27 -29 -30 -31
leaf_value=0.37543030532584681 0.38052071980825147 0.37684377977859174 0.38292640676999201 0.37619108556223141 0.37940042997026852 0.37911920708422969 0.3758793407992756 0.37761480057370728 0.37889000442569665 0.37746677133152784 0.37737386635818204 0.37761480057370728 0.37673322479222721 0.3813921654781216 0.37761480057370728 0.37761480057370728 0.37761480057370728 0.37747698272125102 0.3785563959547289 0.37730685182563983 0.37818661899853906 0.3795274438349569 0.37787056698822169 0.37761480057370728 0.37650524539063362 0.37761480057370728 0.37718335985611406 0.37576733770362641 0.37761480057370728 0.37725265660347351
leaf_weight=696 235 146 228 25 61 74 184 21 281 239 639 56 488 221 37 25 28 76 141 201 186 548 92 31 23 20 110 984 29 35
leaf_count=696 235 146 228 25 61 74 184 21 281 239 639 56 488 221 37 25 28 76 141 201 186 548 92 31 23 20 110 984 29 35
internal_value=0.377615 0.376722 0.380249 0.377388 0.379434 0.377952 0.377087 0.379119 0.378288 0.377804 0.376932 0.376311 0.37708 0.382219 0.378707 0.375748 0.379399 0.378452 0.378098 0.377608 0.377684 0.379472 0.377313 0.377037 0.377377 0.375715 0.375702 0.375893 0.376744 0.377615
internal_weight=0 4601 1559 2743 1110 935 1808 875 631 313 1367 240 1127 449 318 1858 597 278 217 441 387 569 304 177 48 1810 1790 1094 54 127
internal_count=6160 4601 1559 2743 1110 935 1808 875 631 313 1367 240 1127 449 318 1858 597 278 217 441 387 569 304 177 48 1810 1790 1094 54 127
is_linear=0
shrinkage=1


Tree=1
num_leaves=31
num_cat=0
split_feature=14 14 14 1 1 2 0 5 5 5 2 30 2 8 1 39 8 23 33 43 1 17 8 2 11 8 36 26 5 5
split_gain=132.838 27.0088 21.8309 4.30718 2.72441 1.90067 1.22516 0.969097 1.32926 1.03242 0.945523 0.848947 1.35215 0.867262 0.774013 0.571687 0.55662 0.518045 0.692544 0.500198 0.419977 0.394172 0.288888 0.27443 0.25714 0.243886 0.110011 0.183477 1.24652 0.0986449
threshold=0.52168204982502331 -0.38110936808137263 1.0343579194185566 -0.2287852384987028 -0.95674165838732084 0.13364496255252276 -0.16999692591454038 0.16351537403718508 -0.18206495623674204 0.33007667465336504 -0.35498252293051397 -0.48091754268995618 0.38079474623456205 0.32542968579063941 -1.3387286154332736 1.0000000180025095e-35 -0.18237151828651244 0.8617836806181931 0.68163672654690632 0.30182819136667799 0.18359090050020185 -0.26175669976006471 0.11757925120756692 -0.54836021505555066 0.55079372004119265 0.77771031018617187 -0.14920709693029274 -0.8445463812436288 0.13683561561795768 0.23337453624009619
decision_type=2 2 2 2 2 2 2 2 2 2 2 2 2 2 2 2 2 2 2 2 2 2 2 2 2 2 2 2 2 2
left_child=1 15 4 5 -2 22 19 8 -7 -9 17 12 -8 -13 -4 26 21 18 -6 23 -21 -12 24 -5 -3 -17 27 -1 -29 -24
right_child=2 3 14 6 10 7 11 9 -10 -11 16 13 -14 -15 -16 25 -18 -19 -20 20 -22 -23 29 -25 -26 -27 -28 28 -30 -31
leaf_value=-0.0021619322598464188 0.0029555891562465155 -0.00076309155276289842 0.005256873540778923 0 0 0.0014890168739254321 -0.0017175920014605656 0.0014437298850257236 -1.8764818813029904e-06 0 0 -0.0002384459237348397 0 -0.00087247473351854271 0.0037384460105958244 0 0 0 0.0013961982456226194 -0.00070163694677236065 0 0.001892728593637729 0.00025314451747087346 0.00069824758585041618 0 -0.0010984683964698316 0 -0.00042701167679277046 -0.0018283745593754375 -0.00035848307675940281
leaf_weight=696 210 146 228 58 39 74 184 225 291 41 21 639 56 488 221 25 28 67 177 147 124 568 92 112 31 23 20 110 984 35
leaf_count=696 210 146 228 58 39 74 184 225 291 41 21 639 56 488 221 25 28 67 177 147 124 568 92 112 31 23 20 110 984 35
internal_value=0 -0.000884016 0.00260784 -0.000224449 0.00180081 0.000333709 -0.000522901 0.00066613 0.000254618 0.00116202 0.00150932 -0.000676271 -0.00128982 -0.0005291 0.00455683 -0.00184771 0.00177023 0.000874739 0.00112122 -7.0725e-06 -0.000320128 0.0018394 -0.00029817 0.000387541 -0.000571088 -0.000232685 -0.00188065 -0.00189285 -0.00170405 0
internal_weight=0 4601 1559 2743 1110 935 1808 631 365 266 900 1367 240 1127 449 1858 617 283 216 441 271 589 304 170 177 48 1810 1790 1094 127
internal_count=6160 4601 1559 2743 1110 935 1808 631 365 266 900 1367 240 1127 449 1858 617 283 216 441 271 589 304 170 177 48 1810 1790 1094 127
is_linear=0
shrinkage=0.0103406


Tree=2
num_leaves=31
num_cat=0
split_feature=14 14 14 1 1 2 0 2 0 5 30 2 8 1 5 39 8 43 3 5 1 17 8 2 11 8 5 5 26 26
split_gain=130.173 26.4571 21.3733 4.21855 2.66167 1.86065 1.20125 1.03433 0.948797 1.46951 0.828026 1.32613 0.847662 0.742749 0.70268 0.558316 0.540155 0.488058 0.478763 0.692736 0.412399 0.382714 0.282424 0.269749 0.253017 0.239669 0.0966449 0.0947631 0.182319 0.170641
threshold=0.52168204982502331 -0.38110936808137263 1.0343579194185566 -0.2287852384987028 -0.94091575623856516 0.13364496255252276 -0.16999692591454038 -0.35498252293051397 -0.14555794651091297 -0.18206495623674204 -0.48091754268995618 0.38079474623456205 0.32542968579063941 -1.3387286154332736 0.33007667465336504 1.0000000180025095e-35 -0.18237151828651244 0.30182819136667799 -0.91774539309108749 -0.72470400196289986 0.18359090050020185 -0.26175669976006471 0.11757925120756692 -0.54836021505555066 0.55079372004119265 0.77771031018617187 0.23337453624009619 -0.35814756836596812 -0.8445463812436288 -0.4174311926605504
decision_type=2 2 2 2 2 2 2 2 2 2 2 2 2 2 2 2 2 2 2 2 2 2 2 2 2 2 2 2 2 2
left_child=1 15 4 5 -2 22 17 18 9 -7 11 -8 -12 -4 -10 27 21 23 -6 -20 -19 -9 24 -5 -3 -17 -24 -1 -29 -30
right_child=2 3 13 6 7 8 10 16 14 -11 12 -13 -14 -15 -16 25 -18 20 19 -21 -22 -23 26 -25 -26 -27 -28 28 29 -31
leaf_value=-6.195753090413889e-06 0.002846787942342735 -0.00075524386460907905 0.0052027047748877051 0 0.0017547896553182861 0.0014737845775609723 -0.0016999081475828387 0 0.0012502451085029088 -0.00014660930867766499 -0.00023598338267327406 0 -0.0008634676191859842 0.0036999279277777491 0 0 0 -0.00069442097545938347 -0.00014054323885569783 0.00092213959467098443 0 0.0018733509651032601 0.00025054947604846722 0.00069107860946729252 0 -0.0010874923878181652 -0.00035485924689646037 -0.0021427596492431793 -0.0014140743051015067 -0.0019549880594129424
leaf_weight=22 235 146 228 58 61 74 184 21 281 239 639 56 488 221 37 25 28 147 76 141 124 548 92 112 31 23 35 694 578 516
leaf_count=22 235 146 228 58 61 74 184 21 281 239 639 56 488 221 37 25 28 147 76 141 124 548 92 112 31 23 35 694 578 516
internal_value=0 -0.000875115 0.00258153 -0.000222244 0.00178272 0.00033002 -0.000517646 0.00147439 0.000659019 0.000182889 -0.000669511 -0.00127625 -0.000523799 0.00451029 0.00107052 -0.00182893 0.00174835 -6.48885e-06 0.000819281 0.000469569 -0.000316204 0.00181887 -0.000294755 0.000382806 -0.000564609 -0.000227331 0 -0.00186151 -0.00187444 -0.00168661
internal_weight=0 4601 1559 2743 1110 935 1808 875 631 313 1367 240 1127 449 318 1858 597 441 278 217 271 569 304 170 177 48 127 1810 1788 1094
internal_count=6160 4601 1559 2743 1110 935 1808 875 631 313 1367 240 1127 449 318 1858 597 441 278 217 271 569 304 170 177 48 127 1810 1788 1094
is_linear=0
shrinkage=0.0103406


Tree=3
num_leaves=31
num_cat=0
split_feature=14 14 14 1 1 2 0 5 5 5 2 30 2 8 1 39 8 23 33 43 24 17 8 2 11 8 36 26 26 5
split_gain=127.563 25.9177 20.9251 4.13224 2.60282 1.82175 1.17781 0.932118 1.27926 0.999663 0.897063 0.80757 1.30062 0.828482 0.712283 0.545264 0.528099 0.501064 0.673065 0.476187 0.405709 0.372201 0.276099 0.265152 0.248966 0.235521 0.108489 0.174708 0.161439 0.0946855
threshold=0.52168204982502331 -0.38110936808137263 1.0343579194185566 -0.2287852384987028 -0.95674165838732084 0.13364496255252276 -0.16999692591454038 0.16351537403718508 -0.18206495623674204 0.33007667465336504 -0.35498252293051397 -0.48091754268995618 0.38079474623456205 0.32542968579063941 -1.3387286154332736 1.0000000180025095e-35 -0.18237151828651244 0.8617836806181931 0.68163672654690632 0.30182819136667799 0.2547355958958169 -0.26175669976006471 0.11757925120756692 -0.54836021505555066 0.55079372004119265 0.77771031018617187 -0.16271710435441403 -0.8445463812436288 -0.4174311926605504 0.23337453624009619
decision_type=2 2 2 2 2 2 2 2 2 2 2 2 2 2 2 2 2 2 2 2 2 2 2 2 2 2 2 2 2 2
left_child=1 15 4 5 -2 22 19 8 -7 -9 17 12 -8 -13 -4 26 21 18 -6 23 -21 -12 24 -5 -3 -17 27 -1 -29 -24
right_child=2 3 14 6 10 7 11 9 -10 -11 16 13 -14 -15 -16 25 -18 -19 -20 20 -22 -23 29 -25 -26 -27 -28 28 -30 -31
leaf_value=-0.002121535742953937 0.0028958175109288372 -0.00074747682532773688 0.0051490942389322411 0 0 0.0014587081939003814 -0.0016824063794795082 0.0014160995112421769 -3.2163244143631369e-06 0 0 -0.00023354621440687919 0 -0.00085455352039224576 0.003661806794228254 0 0 0 0.0013705184487245734 0.00012359440692046822 -0.00060592619505697297 0.0018534861162290144 0.00024798101337869657 0.00068398329144707469 0 -0.0010766260765254021 0 -0.0013994721756719502 -0.0019348036692744596 -0.00035127200345647813
leaf_weight=694 210 146 228 58 39 74 184 225 291 41 21 639 56 488 221 25 28 67 177 85 186 568 92 112 31 23 22 578 516 35
leaf_count=694 210 146 228 58 39 74 184 225 291 41 21 639 56 488 221 25 28 67 177 85 186 568 92 112 31 23 22 578 516 35
internal_value=0 -0.000866301 0.00255551 -0.000220043 0.00176483 0.000326421 -0.000512446 0.000652057 0.000247352 0.00113865 0.00147894 -0.000662821 -0.00126282 -0.000518553 0.00446422 -0.00181036 0.0017341 0.000856967 0.00109931 -5.91122e-06 -0.000312321 0.00180156 -0.000291375 0.00037812 -0.000558196 -0.000222031 -0.00184259 -0.00185564 -0.00166936 0
internal_weight=0 4601 1559 2743 1110 935 1808 631 365 266 900 1367 240 1127 449 1858 617 283 216 441 271 589 304 170 177 48 1810 1788 1094 127
internal_count=6160 4601 1559 2743 1110 935 1808 631 365 266 900 1367 240 1127 449 1858 617 283 216 441 271 589 304 170 177 48 1810 1788 1094 127
is_linear=0
shrinkage=0.0103406


Tree=4
num_leaves=31
num_cat=0
split_feature=14 14 14 1 1 2 0 0 5 2 30 2 8 1 5 39 8 23 33 43 1 17 8 2 11 8 36 26 5 5
split_gain=125.005 25.3889 20.4864 4.04714 2.54177 1.78336 1.15496 0.913023 1.41375 0.874428 0.787568 1.27562 0.809714 0.682598 0.679681 0.532503 0.514449 0.489758 0.660399 0.464512 0.402199 0.361697 0.269909 0.260638 0.244985 0.231442 0.100838 0.153995 1.22557 0.0927658
threshold=0.52168204982502331 -0.38110936808137263 1.0343579194185566 -0.2287852384987028 -0.95674165838732084 0.13364496255252276 -0.16999692591454038 -0.14555794651091297 -0.18206495623674204 -0.35498252293051397 -0.48091754268995618 0.38079474623456205 0.32542968579063941 -1.3387286154332736 0.33007667465336504 1.0000000180025095e-35 -0.18237151828651244 0.8617836806181931 0.68163672654690632 0.30182819136667799 0.18359090050020185 -0.26175669976006471 0.11757925120756692 -0.54836021505555066 0.55079372004119265 0.77771031018617187 -0.14920709693029274 -0.8445463812436288 0.13683561561795768 0.23337453624009619
decision_type=2 2 2 2 2 2 2 2 2 2 2 2 2 2 2 2 2 2 2 2 2 2 2 2 2 2 2 2 2 2
left_child=1 15 4 5 -2 22 19 8 -7 17 11 -8 -12 -4 -9 26 21 18 -6 23 -21 -11 24 -5 -3 -17 27 -1 -29 -24
right_child=2 3 13 6 9 7 10 14 -10 16 12 -13 -14 -15 -16 25 -18 -19 -20 20 -22 -23 29 -25 -26 -27 -28 28 -30 -31
leaf_value=-0.0020962547851597364 0.0028659868615961339 -0.00073978973346030717 0.0050960364052300188 0 0 0.0014437860616133952 -0.0016650847983510745 0.0012257727142869265 -0.00014518819433378326 0 -0.00023113422807565447 0 -0.00084573143674655544 0.0036240784293027056 0 0 0 0 0.0013564103945121956 -0.00068257878804792464 0 0.0018343469906378764 0.00024543891252243728 0.00067696074921138813 0 -0.0010658683547887565 0 -0.00038892380727453271 -0.0017751246664752575 -0.00034772099191047047
leaf_weight=696 210 146 228 58 39 74 184 281 239 21 639 56 488 221 37 25 28 67 177 147 124 568 92 112 31 23 20 110 984 35
leaf_count=696 210 146 228 58 39 74 184 281 239 21 639 56 488 221 37 25 28 67 177 147 124 568 92 112 31 23 20 110 984 35
internal_value=0 -0.000857585 0.00252974 -0.000217878 0.00174711 0.000322808 -0.000507293 0.000645091 0.000176824 0.00146407 -0.0006562 -0.00124952 -0.000513361 0.00441862 0.00104889 -0.00179198 0.00171648 0.000848128 0.00108774 -5.31228e-06 -0.000308433 0.0017831 -0.000288029 0.000373482 -0.000551849 -0.000216785 -0.00182386 -0.00183566 -0.00165229 0
internal_weight=0 4601 1559 2743 1110 935 1808 631 313 900 1367 240 1127 449 318 1858 617 283 216 441 271 589 304 170 177 48 1810 1790 1094 127
internal_count=6160 4601 1559 2743 1110 935 1808 631 313 900 1367 240 1127 449 318 1858 617 283 216 441 271 589 304 170 177 48 1810 1790 1094 127
is_linear=0
shrinkage=0.0103406


Tree=5
num_leaves=31
num_cat=0
split_feature=14 14 14 1 1 2 0 2 5 5 5 30 2 21 1 39 3 5 43 24 17 5 2 44 5 26 26 27 40 25
split_gain=122.497 24.8709 20.0567 3.96432 2.48324 1.74606 1.13249 0.962244 0.896503 1.23114 0.969686 0.768011 1.25111 0.756111 0.653676 0.520014 0.462793 0.66448 0.453144 0.395664 0.313635 0.347137 0.256205 0.249964 0.0990273 0.154857 0.157946 0.0594941 0.0511198 0.0433729
threshold=0.52168204982502331 -0.38110936808137263 1.0343579194185566 -0.2287852384987028 -0.94091575623856516 0.13364496255252276 -0.16999692591454038 -0.35498252293051397 0.16351537403718508 -0.18206495623674204 0.32375016910908516 -0.48091754268995618 0.38079474623456205 0.37223678720256509 -1.3387286154332736 1.0000000180025095e-35 -0.91774539309108749 -0.72470400196289986 0.30182819136667799 0.2547355958958169 -0.26175669976006471 -0.34120764235697404 -0.54836021505555066 0.35806695341527861 -0.35814756836596812 -0.8445463812436288 -0.4174311926605504 -0.36059907834101373 0.40727937943297077 0.53826955074875216
decision_type=2 2 2 2 2 2 2 2 2 2 2 2 2 2 2 2 2 2 2 2 2 2 2 2 2 2 2 2 2 2
left_child=1 15 4 5 -2 23 18 16 9 -7 -10 12 -8 -13 -4 24 -6 -18 22 -20 -9 -22 -5 29 -1 -26 -27 -17 -25 -3
right_child=2 3 14 6 7 8 11 20 10 -11 -12 13 -14 -15 -16 27 17 -19 19 -21 21 -23 -24 28 25 26 -28 -29 -30 -31
leaf_value=0 0.0027605572604547253 -7.7753285723221137e-05 0.005043525099585949 0 0.0017122414215320705 0.0014290165391965374 -0.0016479415529369217 0 0.0014145712482658656 -4.5037224084049281e-06 0 -0.0006945439402000961 0 -5.9792977605587621e-05 0.0035867387813978218 0 -0.00014718248172750298 0.00089356795358262026 0.00012479617153280816 -0.00059526662181479801 0.001839529221201114 0.00036598982023223445 0.00067001035148783706 -0.00069500886157134064 -0.0020781936011118802 -0.0013682259070823945 -0.0018978316718470006 -0.00059921857894132814 0 0.00041507964650507756
leaf_weight=22 235 145 228 58 61 74 184 21 217 291 49 768 56 359 221 25 76 141 85 186 526 50 112 117 694 578 516 23 21 21
leaf_count=22 235 145 228 58 61 74 184 21 217 291 49 768 56 359 221 25 76 141 85 186 526 50 112 117 694 578 516 23 21 21
internal_value=0 -0.000848944 0.00250424 -0.000215721 0.00172957 0.000319283 -0.000502198 0.0014302 0.000638273 0.000240253 0.00111574 -0.000649647 -0.00123637 -0.000508223 0.0043735 -0.00177377 0.000793488 0.000448626 -4.73837e-06 -0.000304615 0.00169563 0.00174298 0.000368892 -0.000284718 -0.00180531 -0.00181801 -0.00163539 -0.00021159 -0.000608749 0
internal_weight=0 4601 1559 2743 1110 935 1808 875 631 365 266 1367 240 1127 449 1858 278 217 441 271 597 576 170 304 1810 1788 1094 48 138 166
internal_count=6160 4601 1559 2743 1110 935 1808 875 631 365 266 1367 240 1127 449 1858 278 217 441 271 597 576 170 304 1810 1788 1094 48 138 166
is_linear=0
shrinkage=0.0103406


Tree=6
num_leaves=31
num_cat=0
split_feature=14 14 14 1 1 2 0 0 5 2 30 2 8 5 1 39 8 15 43 1 17 5 23 8 2 11 8 36 26 5
split_gain=120.05 24.3645 19.6344 3.88192 2.4273 1.71106 1.11053 0.878999 1.36012 0.829662 0.748896 1.22709 0.785887 0.657674 0.625498 0.504682 0.494392 0.474366 0.441983 0.392249 0.341507 0.322314 0.262411 0.261934 0.251851 0.239524 0.226036 0.099366 0.136197 1.19983
threshold=0.52168204982502331 -0.38110936808137263 1.0343579194185566 -0.2287852384987028 -0.95674165838732084 0.13364496255252276 -0.16999692591454038 -0.14555794651091297 -0.18206495623674204 -0.35498252293051397 -0.48091754268995618 0.38079474623456205 0.32542968579063941 0.33007667465336504 -1.3387286154332736 1.0000000180025095e-35 -0.18237151828651244 0.7941017613241057 0.30182819136667799 0.18359090050020185 -0.26175669976006471 -0.72470400196289986 0.8617836806181931 0.11757925120756692 -0.54836021505555066 0.55079372004119265 0.77771031018617187 -0.14920709693029274 -0.8445463812436288 0.13683561561795768
decision_type=2 2 2 2 2 2 2 2 2 2 2 2 2 2 2 2 2 2 2 2 2 2 2 2 2 2 2 2 2 2
left_child=1 15 4 5 -2 23 18 8 -7 17 11 -8 -12 -9 -4 27 20 21 24 -20 -11 -6 -19 25 -5 -3 -17 28 -1 -30
right_child=2 3 14 6 9 7 10 13 -10 16 12 -13 -14 -15 -16 26 -18 22 19 -21 -22 -23 -24 -25 -26 -27 -28 -29 29 -31
leaf_value=-0.0020537550039423187 0.0028080265225248727 -0.00072816052594153777 0.0049915547680529429 0 -0.00019667233954608553 0.0014143981939713228 -0.0016309748091278384 0.0012019831121335292 -0.00014376861139384916 0 -0.00022465184289443383 0 -0.00083062241359149638 0 0.0035497838953874074 0 0 0.0015019189489755991 -0.00067094812615921219 0 0.0017968256424629122 0.00067187491713111816 0 0 0.00066313130923853459 0 -0.0010510529001381917 0 -0.00036851293144937302 -0.0017400444609900819
leaf_weight=696 210 146 228 58 51 74 184 281 239 21 639 56 488 37 221 25 28 118 147 124 568 86 28 127 112 31 23 20 110 984
leaf_count=696 210 146 228 58 51 74 184 281 239 21 639 56 488 37 221 25 28 118 147 124 568 86 28 127 112 31 23 20 110 984
internal_value=0 -0.000840446 0.00247907 -0.000213627 0.00171231 0.000315664 -0.000497149 0.00063154 0.000170903 0.00143473 -0.00064316 -0.00122334 -0.000503135 0.00102786 0.00432884 -0.00175582 0.00168162 0.000830889 -4.1516e-06 -0.000300807 0.00174692 0.000220882 0.00127843 -0.000281873 0.000364349 -0.000541966 -0.00020867 -0.00178697 -0.00179857 -0.00161867
internal_weight=0 4601 1559 2743 1110 935 1808 631 313 900 1367 240 1127 318 449 1858 617 283 441 271 589 137 146 304 170 177 48 1810 1790 1094
internal_count=6160 4601 1559 2743 1110 935 1808 631 313 900 1367 240 1127 318 449 1858 617 283 441 271 589 137 146 304 170 177 48 1810 1790 1094
is_linear=0
shrinkage=0.0103406


Tree=7
num_leaves=31
num_cat=0
split_feature=14 14 14 1 1 2 0 5 5 5 2 30 2 8 1 39 8 15 3 43 24 17 5 8 2 11 8 5 26 26
split_gain=117.646 23.8687 19.2209 3.80354 2.36955 1.67405 1.08899 0.862704 1.18485 0.939207 0.807345 0.7302 1.20355 0.768046 0.59805 0.492819 0.481582 0.464711 0.529446 0.431097 0.385865 0.33172 0.316488 0.256612 0.247576 0.235709 0.22211 0.0977527 0.137142 0.15452
threshold=0.52168204982502331 -0.38110936808137263 1.0343579194185566 -0.2287852384987028 -0.95674165838732084 0.13364496255252276 -0.16999692591454038 0.16351537403718508 -0.18206495623674204 0.32375016910908516 -0.35498252293051397 -0.48091754268995618 0.38079474623456205 0.32542968579063941 -1.3387286154332736 1.0000000180025095e-35 -0.18237151828651244 0.7941017613241057 -0.53905848362721753 0.30182819136667799 0.2547355958958169 -0.26175669976006471 -0.72470400196289986 0.11757925120756692 -0.54836021505555066 0.55079372004119265 0.77771031018617187 -0.35814756836596812 -0.8445463812436288 -0.4174311926605504
decision_type=2 2 2 2 2 2 2 2 2 2 2 2 2 2 2 2 2 2 2 2 2 2 2 2 2 2 2 2 2 2
left_child=1 15 4 5 -2 23 19 8 -7 -9 17 12 -8 -13 -4 27 21 22 -19 24 -21 -12 -6 25 -5 -3 -17 -1 -29 -30
right_child=2 3 14 6 10 7 11 9 -10 -11 16 13 -14 -15 -16 26 -18 18 -20 20 -22 -23 -24 -25 -26 -27 -28 28 29 -31
leaf_value=0 0.002779100255641011 -0.00072067205677544383 0.0049401201354924628 0 -0.00019467009454139406 0.0013999292755156906 -0.0016141827593266591 0.0013877419378818278 -5.7407117494520794e-06 0 0 -0.00022233172530401106 0 -0.00082204738741811312 0.0035132097310439665 0 0 0.001554406958227355 0 0.0001259435827866102 -0.00058479217750346635 0.0017782716002456254 0.00066499151846791972 0 0.00065632289607016748 0 -0.0010405506808951524 -0.0020360662918931043 -0.0013376482379994603 -0.0018615894736245583
leaf_weight=22 210 146 228 58 51 74 184 217 291 49 21 639 56 488 221 25 28 120 26 85 186 568 86 127 112 31 23 694 578 516
leaf_count=22 210 146 228 58 51 74 184 217 291 49 21 639 56 488 221 25 28 120 26 85 186 568 86 127 112 31 23 694 578 516
internal_value=0 -0.000831957 0.00245416 -0.000211473 0.00169523 0.000312329 -0.000492156 0.000624861 0.000233319 0.00109349 0.00142043 -0.000636741 -0.00121046 -0.000498102 0.00428464 -0.00173798 0.00166453 0.000822692 0.00126594 -3.58146e-06 -0.000297054 0.00172902 0.000217299 -0.000278266 0.000359853 -0.000535783 -0.000203548 -0.0017688 -0.00178128 -0.00160212
internal_weight=0 4601 1559 2743 1110 935 1808 631 365 266 900 1367 240 1127 449 1858 617 283 146 441 271 589 137 304 170 177 48 1810 1788 1094
internal_count=6160 4601 1559 2743 1110 935 1808 631 365 266 900 1367 240 1127 449 1858 617 283 146 441 271 589 137 304 170 177 48 1810 1788 1094
is_linear=0
shrinkage=0.0103406


Tree=8
num_leaves=31
num_cat=0
split_feature=14 14 14 1 1 2 0 2 0 5 30 2 8 5 21 39 8 43 23 36 1 16 8 2 11 8 36 26 5 5
split_gain=115.286 23.3836 18.8176 3.72681 2.31442 1.63786 1.06792 0.89389 0.846209 1.30851 0.711921 1.18046 0.750588 0.636429 0.577049 0.48124 0.467683 0.420429 0.410413 0.504784 0.382543 0.323312 0.251398 0.243377 0.23196 0.218248 0.097903 0.119316 1.17463 0.0904942
threshold=0.52168204982502331 -0.38110936808137263 1.0343579194185566 -0.2287852384987028 -0.94091575623856516 0.13364496255252276 -0.16999692591454038 -0.35498252293051397 -0.14555794651091297 -0.18206495623674204 -0.48091754268995618 0.38079474623456205 0.32542968579063941 0.33007667465336504 0.38151416054932102 1.0000000180025095e-35 -0.18237151828651244 0.30182819136667799 0.8617836806181931 0.63469152082921354 0.18359090050020185 -0.25167962242585457 0.11757925120756692 -0.54836021505555066 0.55079372004119265 0.77771031018617187 -0.14920709693029274 -0.8445463812436288 0.13683561561795768 0.23337453624009619
decision_type=2 2 2 2 2 2 2 2 2 2 2 2 2 2 2 2 2 2 2 2 2 2 2 2 2 2 2 2 2 2
left_child=1 15 4 5 -2 22 17 18 9 -7 11 -8 -12 -10 -4 26 21 23 19 -6 -19 -9 24 -5 -3 -17 27 -1 -29 -24
right_child=2 3 14 6 7 8 10 16 13 -11 12 -13 -14 -15 -16 25 -18 20 -20 -21 -22 -23 29 -25 -26 -27 -28 28 -30 -31
leaf_value=-0.0020121167999367215 0.0026768503666079356 -0.00071326061075738321 0.0043534977154932363 0 0 0.001385608370977943 -0.0015975635894808294 0 0.001178653165704876 -0.00014234894926420873 -0.00022003557092549724 0 -0.00081356089689134251 0 0.0010587388899793611 0 0 -0.00065952522748738483 0 0.0011922598915965611 4.7363745576827363e-07 0.0017608612402506805 0.00024396721711667595 0.0006495843888176476 0 -0.0010301533859104076 0 -0.00034865091817428426 -0.0017056705039660794 -0.00034057645116322271
leaf_weight=696 235 146 428 58 27 74 184 21 281 239 639 56 488 37 21 25 28 147 67 184 124 548 92 112 31 23 20 110 984 35
leaf_count=696 235 146 428 58 27 74 184 21 281 239 639 56 488 37 21 25 28 147 67 184 124 548 92 112 31 23 20 110 984 35
internal_value=0 -0.000823558 0.00242943 -0.000209336 0.00167822 0.000309038 -0.000487212 0.0013876 0.000618264 0.000165126 -0.000630389 -0.0011977 -0.000493122 0.00100724 0.0042409 -0.00172034 0.00164469 -3.00667e-06 0.000768908 0.000992692 -0.000293324 0.00171046 -0.000274696 0.000355402 -0.000529664 -0.000198477 -0.00175083 -0.00176224 -0.00158574 0
internal_weight=0 4601 1559 2743 1110 935 1808 875 631 313 1367 240 1127 318 449 1858 597 441 278 211 271 569 304 170 177 48 1810 1790 1094 127
internal_count=6160 4601 1559 2743 1110 935 1808 875 631 313 1367 240 1127 318 449 1858 597 441 278 211 271 569 304 170 177 48 1810 1790 1094 127
is_linear=0
shrinkage=0.0103406


Tree=9
num_leaves=31
num_cat=0
split_feature=14 14 14 1 1 2 0 5 5 5 2 30 2 8 1 39 8 23 36 43 24 17 8 2 11 8 5 26 26 5
split_gain=112.972 22.9065 18.4226 3.65053 2.26318 1.60357 1.04725 0.830137 1.1403 0.909759 0.766028 0.69405 1.15784 0.735262 0.578773 0.469908 0.456597 0.451925 0.537379 0.41001 0.376306 0.315027 0.245735 0.239254 0.228275 0.214449 0.0964771 0.120339 0.151159 0.0886593
threshold=0.52168204982502331 -0.38110936808137263 1.0343579194185566 -0.2287852384987028 -0.95674165838732084 0.13364496255252276 -0.16999692591454038 0.16351537403718508 -0.18206495623674204 0.32375016910908516 -0.35498252293051397 -0.48091754268995618 0.38079474623456205 0.51904199861922684 -1.3387286154332736 1.0000000180025095e-35 -0.18237151828651244 0.8617836806181931 0.63469152082921354 0.30182819136667799 0.2547355958958169 -0.26175669976006471 0.11757925120756692 -0.54836021505555066 0.55079372004119265 0.77771031018617187 -0.35814756836596812 -0.8445463812436288 -0.4174311926605504 0.23337453624009619
decision_type=2 2 2 2 2 2 2 2 2 2 2 2 2 2 2 2 2 2 2 2 2 2 2 2 2 2 2 2 2 2
left_child=1 15 4 5 -2 22 19 8 -7 -9 17 12 -8 -13 -4 26 21 18 -6 23 -21 -12 24 -5 -3 -17 -1 -28 -29 -24
right_child=2 3 14 6 10 7 11 9 -10 -11 16 13 -14 -15 -16 25 -18 -19 -20 20 -22 -23 29 -25 -26 -27 27 28 -30 -31
leaf_value=0 0.0027228972346426327 -0.00070592537869353762 0.004844355489318013 0 0 0.0013714340775485201 -0.0015811155533929518 0.0013614270273192067 -6.9287101489956112e-06 0 0 -0.0002845628211457802 0 -0.00092461721869025761 0.003435383372424273 0 0 0 0.0012361105232968259 0.0001270348080836763 -0.00057450134445016982 0.0017415214501512748 0.00024146625613726198 0.00064291509972497923 0 -0.001019859985064931 -0.0019947930015054962 -0.0013077252022359789 -0.0018260624161829634 -0.00033713356719199312
leaf_weight=22 210 146 228 58 27 74 184 217 291 49 21 797 56 330 221 25 28 67 189 85 186 568 92 112 31 23 694 578 516 35
leaf_count=22 210 146 228 58 27 74 184 217 291 49 21 797 56 330 221 25 28 67 189 85 186 568 92 112 31 23 694 578 516 35
internal_value=0 -0.000815265 0.00240491 -0.000207265 0.00166134 0.000305656 -0.00048232 0.000611722 0.000226544 0.00107167 0.00139179 -0.000624102 -0.00118508 -0.000488192 0.00419755 -0.00170287 0.00163058 0.000805693 0.00103568 -2.4417e-06 -0.000289637 0.00169346 -0.000271521 0.000350998 -0.000523607 -0.000193456 -0.00173303 -0.0017453 -0.00156953 0
internal_weight=0 4601 1559 2743 1110 935 1808 631 365 266 900 1367 240 1127 449 1858 617 283 216 441 271 589 304 170 177 48 1810 1788 1094 127
internal_count=6160 4601 1559 2743 1110 935 1808 631 365 266 900 1367 240 1127 449 1858 617 283 216 441 271 589 304 170 177 48 1810 1788 1094 127
is_linear=0
shrinkage=0.0103406


Tree=10
num_leaves=31
num_cat=0
split_feature=14 14 14 1 14 2 5 0 0 5 8 30 2 8 5 21 39 43 1 4 8 8 2 11 8 8 16 36 26 5
split_gain=110.706 22.4398 18.0365 3.57587 2.22884 1.57003 1.17748 1.02702 0.814611 1.26204 0.689115 0.676574 1.13566 0.721606 0.615918 0.555849 0.458847 0.399814 0.373083 0.336128 0.321965 0.240195 0.235204 0.224653 0.210711 0.154692 0.125268 0.0965265 0.112392 1.14996
threshold=0.52168204982502331 -0.38110936808137263 1.0343579194185566 -0.2287852384987028 0.72983924083456708 0.13364496255252276 -0.76245917110610284 -0.16999692591454038 -0.14555794651091297 -0.17295091903661999 -0.44406929224201919 -0.48091754268995618 0.38079474623456205 0.32542968579063941 0.33007667465336504 0.38151416054932102 1.0000000180025095e-35 0.30182819136667799 0.18359090050020185 0.61696398859462842 -0.21944818976276478 0.11757925120756692 -0.54836021505555066 0.55079372004119265 0.77771031018617187 -0.38159278503734984 -0.21271041080992423 -0.16271710435441403 -0.8445463812436288 0.13683561561795768
decision_type=2 2 2 2 2 2 2 2 2 2 2 2 2 2 2 2 2 2 2 2 2 2 2 2 2 2 2 2 2 2
left_child=1 16 4 5 6 21 19 17 9 -7 -6 12 -9 -13 -10 -4 27 22 -19 -2 26 23 -5 -3 -18 -12 -8 28 -1 -30
right_child=2 3 15 7 10 8 20 11 14 -11 25 13 -14 -15 -16 -17 24 18 -20 -21 -22 -23 -24 -25 -26 -27 -28 -29 29 -31
leaf_value=-0.0019745148391351621 0.00047725592184604009 -0.00069866555967227099 0.0042653597576926237 0 0.0022678134419070154 0.0012752986516581387 0 -0.0015648368328585744 0.001155773871109052 -0.00016954445829653729 0 -0.00021482426113125468 0 -0.00079775593095393366 0 0.0010139768675657241 0 -0.00064830633331228453 3.1743448644411571e-06 -0.0008538468607211685 0.00026779004584230923 0 0.00063631420849218502 0 -0.0010096694587593724 0.0010435773516530153 0.0014904372525167662 0 -0.00032932502450059979 -0.0016719883786976376
leaf_weight=694 52 146 428 58 516 83 20 184 281 230 26 639 56 488 37 21 25 147 124 32 69 127 112 31 23 32 363 22 110 984
leaf_count=694 52 146 428 58 516 83 20 184 281 230 26 639 56 488 37 21 25 147 124 32 69 127 112 31 23 32 363 22 110 984
internal_value=0 -0.000807062 0.00238065 -0.000205212 0.00164463 0.000302316 0.00109141 -0.000477478 0.000605259 0.000159487 0.00212819 -0.000617882 -0.00117259 -0.000483315 0.000987014 0.00415471 -0.00168559 -1.87873e-06 -0.000285983 0 0.00130008 -0.000268377 0.000346638 -0.000517613 -0.000188486 0.000571157 0.00143901 -0.00171542 -0.00172761 -0.00155349
internal_weight=0 4601 1559 2743 1110 935 536 1808 631 313 574 1367 240 1127 318 449 1858 441 271 84 452 304 170 177 48 58 383 1810 1788 1094
internal_count=6160 4601 1559 2743 1110 935 536 1808 631 313 574 1367 240 1127 318 449 1858 441 271 84 452 304 170 177 48 58 383 1810 1788 1094
is_linear=0
shrinkage=0.0103406


Tree=11
num_leaves=30
num_cat=0
split_feature=14 14 14 1 1 2 0 5 5 5 2 30 2 21 1 39 23 33 8 43 24 16 8 2 11 8 5 5 5
split_gain=108.491 21.9835 17.6555 3.50368 2.18228 1.53601 1.00717 0.798792 1.09904 0.881284 0.737437 0.659494 1.11392 0.713198 0.560028 0.448031 0.439263 0.600427 0.43559 0.389857 0.366979 0.302369 0.235302 0.231226 0.221093 0.207034 0.0939206 0.0868616 0.0644286
threshold=0.52168204982502331 -0.38110936808137263 1.0343579194185566 -0.2287852384987028 -0.95674165838732084 0.13364496255252276 -0.16999692591454038 0.16351537403718508 -0.18206495623674204 0.32375016910908516 -0.35498252293051397 -0.48091754268995618 0.38079474623456205 0.37223678720256509 -1.3387286154332736 1.0000000180025095e-35 0.8617836806181931 0.68163672654690632 -0.18237151828651244 0.30182819136667799 0.2547355958958169 -0.25167962242585457 0.11757925120756692 -0.54836021505555066 0.55079372004119265 0.77771031018617187 -0.35814756836596812 0.23337453624009619 -0.72470400196289986
decision_type=2 2 2 2 2 2 2 2 2 2 2 2 2 2 2 2 2 2 2 2 2 2 2 2 2 2 2 2 2
left_child=1 15 4 5 -2 22 19 8 -7 -9 16 12 -8 -13 -4 26 17 -6 21 23 -21 -12 24 -5 -3 -17 -1 -24 -18
right_child=2 3 14 6 10 7 11 9 -10 -11 18 13 -14 -15 -16 25 28 -19 -20 20 -22 -23 27 -25 -26 -27 -28 -29 -30
leaf_value=0 0.0026720234155487286 -0.00069148041346328397 0.0047504856213206317 0 0 0.0013443587994004921 -0.0015487257037189995 0.0013356193335405432 -8.293682520487647e-06 0 0 -0.00065894100296024123 0 -4.2660857603897357e-05 0.003359224044528319 0 -0.00017667132889205038 0.0012691291768153936 0 0.00012805639501399716 -0.0005643994342263898 0.0017061477250868218 0.00023899092770099549 0.00062978115040933326 0 -0.00099958072549013554 -0.0017100479836161537 -0.00033372553008458072 0.00048029761600810658
leaf_weight=22 210 146 228 58 39 74 184 217 291 49 21 768 56 359 221 25 44 177 28 85 186 568 92 112 31 23 1788 35 23
leaf_count=22 210 146 228 58 39 74 184 217 291 49 21 768 56 359 221 25 44 177 28 85 186 568 92 112 31 23 1788 35 23
internal_value=0 -0.00079892 0.00235674 -0.000203145 0.00162824 0.000299115 -0.000472687 0.000598849 0.000219919 0.00105027 0.00136288 -0.000611724 -0.00116022 -0.000478487 0.00411225 -0.00166849 0.000785731 0.00101233 0.0015976 -1.32542e-06 -0.000282372 0.00165906 -0.000264917 0.000342324 -0.000511681 -0.000183565 -0.001698 0 0
internal_weight=0 4601 1559 2743 1110 935 1808 631 365 266 900 1367 240 1127 449 1858 283 216 617 441 271 589 304 170 177 48 1810 127 67
internal_count=6160 4601 1559 2743 1110 935 1808 631 365 266 900 1367 240 1127 449 1858 283 216 617 441 271 589 304 170 177 48 1810 127 67
is_linear=0
shrinkage=0.0103406


Tree=12
num_leaves=31
num_cat=0
split_feature=0 15 1 1 0 4 24 0 15 5 8 5 8 26 30 5 28 36 8 8 15 39 3 42 26 38 33 4 1 5
split_gain=105.484 21.2018 17.8565 2.68568 2.61727 2.41144 1.11495 1.07453 0.994141 0.93123 0.724076 2.23147 0.674172 0.599912 0.53185 0.466222 0.464619 0.380904 0.331482 0.324073 0.606878 0.322806 0.256598 0.157091 0.16232 0.15151 0.150539 0.0993654 0.0686367 0.0627495
threshold=-0.50742903986064136 -0.29907080725492069 -0.95674165838732084 0.62780914978376556 -1.1667179014243261 0.55970620198960497 -1.0000000180025095e-35 -0.73240086074392863 -0.39663020008784966 -0.76245917110610284 0.13496905620282967 0.33007667465336504 -0.1877514537762518 -0.12793068297655449 0.50535354610485284 0.1601604315938415 -0.1856550642769256 -0.45200309165077307 -0.62723925767372324 -0.5237330980157745 0.91569171335457267 0.021428615011829955 0.80758781187701378 0.15781916653577086 0.23598369011213052 -0.1257845427172076 -0.38822355289421157 0.72595793987332558 1.098932003086518 0.012455619989707846
decision_type=2 2 2 2 2 2 2 2 2 2 2 2 2 2 2 2 2 2 2 2 2 2 2 2 2 2 2 2 2 2
left_child=2 8 4 5 -1 10 13 19 21 27 15 -12 18 26 16 -3 -7 29 -11 -4 -21 -2 25 -8 -25 -19 -5 -9 -15 -10
right_child=1 3 7 6 -6 14 23 9 17 12 11 -13 -14 28 -16 -17 -18 22 -20 20 -22 -23 -24 24 -26 -27 -28 -29 -30 -31
leaf_value=0.0043702621052097608 -0.0017096823026931192 -6.3589771419501822e-05 0.0020228102783093767 0 0.0027007454478381672 0 -0.00060346122135253029 6.8808138071599377e-06 0.00012089745979383384 0 0.00095232181812445751 -0.00029275701669441683 0 -0.00049624943655990556 4.8887282250667664e-05 0.00059131613546005348 -0.0011264386634341956 -0.0012908062145608591 0.0014224579847512467 0.0014143392048921405 0 0 0 0.00052416062524934153 -0.00015112873444922872 0 -0.0014665291394341891 -0.00068254585904452172 0 -0.00037397092109969088
leaf_weight=354 1669 931 349 21 262 76 36 44 20 20 387 226 68 29 36 131 243 274 287 141 36 20 32 73 20 20 250 22 38 45
leaf_count=354 1669 931 349 21 262 76 36 44 20 20 387 226 68 29 36 131 243 274 287 141 36 20 32 73 20 20 250 22 38 45
internal_value=0 -0.000795838 0.00230021 -0.000145549 0.0036933 8.63242e-06 -0.00085245 0.00139218 -0.00156764 0.000921581 0.000181348 0.000464678 0.00112403 -0.00116415 -0.000755136 9.31037e-07 -0.000901096 -0.000976368 0.00133295 0.00175113 0.00110922 -0.00169351 -0.00112585 0 0.000190254 -0.00122401 -0.00138756 0 0 0
internal_weight=0 4577 1583 2497 616 2030 467 967 2080 441 1675 613 375 338 355 1062 319 391 307 526 177 1689 326 129 93 294 271 66 67 65
internal_count=6160 4577 1583 2497 616 2030 467 967 2080 441 1675 613 375 338 355 1062 319 391 307 526 177 1689 326 129 93 294 271 66 67 65
is_linear=0
shrinkage=0.0103406


Tree=13
num_leaves=31
num_cat=0
split_feature=14 14 14 2 14 24 8 11 5 5 5 8 30 2 8 21 26 39 9 4 5 25 20 8 8 20 36 26 5 5
split_gain=104.195 21.0888 16.9352 2.61209 2.09981 2.02049 1.35413 1.27002 1.24732 1.19658 1.12068 0.750238 0.721725 0.674774 0.645673 0.525914 0.5258 0.428646 0.373848 0.324425 0.300367 0.255628 0.222748 0.200245 0.149129 0.132628 0.0967905 0.10819 1.12843 0.0662659
threshold=0.52168204982502331 -0.38110936808137263 1.0343579194185566 -0.045980875240258755 0.72983924083456708 0.015390686661404895 0.097872009368716387 0.71262583787899392 0.4704260193229593 0.33659554078426135 -0.76245917110610284 -0.2372578939086579 -0.55317843009035628 -1.1034328367798907 -0.44406929224201919 0.38151416054932102 0.51630988786952103 1.0000000180025095e-35 -0.44190167365249405 0.61696398859462842 -0.188975191028985 -0.27870216306156398 0.51978951878572788 0.77771031018617187 -0.38159278503734984 0.5512749597585852 -0.14920709693029274 -0.8445463812436288 0.13683561561795768 -0.35814756836596812
decision_type=2 2 2 2 2 2 2 2 2 2 2 2 2 2 2 2 2 2 2 2 2 2 2 2 2 2 2 2 2 2
left_child=1 17 4 12 10 7 11 8 -5 -8 19 -7 25 16 -6 -4 -14 26 -15 -2 22 -9 -12 -19 -16 -3 27 29 -29 -1
right_child=2 3 15 5 14 6 9 21 -10 -11 20 -13 13 18 24 -17 -18 23 -20 -21 -22 -23 -24 -25 -26 -27 -28 28 -30 -31
leaf_value=0 0.00046057160053022701 0 0.0041373442236832658 -0.0003202333898545317 0.0022015214506524968 0.00048370738887927345 0.0013211192386968242 0 -0.0017988091448632015 -0.00036217244055839994 0.0014101611792441803 -0.00019255076862454315 -0.0011995854990483319 3.2108969375630065e-05 0 0.00094915838401346227 0 0 -0.0004261972457405842 -0.00084622300030069123 0 0.0009282791609614183 0 -0.00098014317233793987 0.0010089803440775638 -0.0016248933700233543 0 -0.0002931166172083169 -0.0016199416248829069 -0.0019475100767579463
leaf_weight=20 52 23 428 543 516 315 225 23 79 37 389 352 193 184 26 21 20 25 571 32 35 80 28 23 32 98 20 110 984 676
leaf_count=20 52 23 428 543 516 315 225 23 79 37 389 352 193 184 26 21 20 25 571 32 35 80 28 23 32 98 20 110 984 676
internal_value=0 -0.000782917 0.00230964 -0.000199238 0.0015956 4.99284e-05 0.000378306 -0.000346422 -0.000538512 0.00101569 0.00105668 0.000100523 -0.000593673 -0.000470635 0.00206589 0.00402953 -0.0010205 -0.00163463 -0.000291177 0 0.0012603 0.000638313 0.001341 -0.000172636 0.000544721 -0.00142312 -0.00166354 -0.00167453 -0.00150301 -0.00191671
internal_weight=0 4601 1559 2743 1110 1654 929 725 622 262 536 667 1089 968 574 449 213 1858 755 84 452 103 417 48 58 121 1810 1790 1094 696
internal_count=6160 4601 1559 2743 1110 1654 929 725 622 262 536 667 1089 968 574 449 213 1858 755 84 452 103 417 48 58 121 1810 1790 1094 696
is_linear=0
shrinkage=0.0103406


Tree=14
num_leaves=31
num_cat=0
split_feature=14 14 14 1 1 2 0 0 5 2 9 5 41 1 23 33 39 8 43 1 16 8 2 11 8 36 26 5 25 5
split_gain=102.115 20.6591 16.5781 3.31223 2.05118 1.47076 0.960934 0.763471 1.20486 0.698583 0.628355 0.578117 0.541424 0.532116 0.425139 0.571479 0.418631 0.409399 0.379556 0.361152 0.293669 0.22329 0.222107 0.215049 0.196735 0.0905886 0.100543 1.1001 0.083973 0.0604548
threshold=0.52168204982502331 -0.38110936808137263 1.0343579194185566 -0.2287852384987028 -0.95674165838732084 0.13364496255252276 -0.16999692591454038 -0.14555794651091297 -0.17295091903661999 -0.35498252293051397 -0.73817753887945481 0.33007667465336504 -0.57710944245877582 -1.3387286154332736 0.8617836806181931 0.68163672654690632 1.0000000180025095e-35 -0.18237151828651244 0.30182819136667799 0.18359090050020185 -0.21990857866184763 0.11757925120756692 -0.54836021505555066 0.55079372004119265 0.77771031018617187 -0.14920709693029274 -0.8445463812436288 0.13683561561795768 0.29866888519134782 -0.72470400196289986
decision_type=2 2 2 2 2 2 2 2 2 2 2 2 2 2 2 2 2 2 2 2 2 2 2 2 2 2 2 2 2 2
left_child=1 16 4 5 -2 21 18 8 -7 14 -8 -9 -12 -4 15 -6 25 20 22 -20 -11 23 -5 -3 -18 26 -1 -28 -23 -16
right_child=2 3 13 6 9 7 10 11 -10 17 12 -13 -14 -15 29 -17 24 -19 19 -21 -22 28 -24 -25 -26 -27 27 -29 -30 -31
leaf_value=-0.0018971692663631466 0.0025943296250602603 -0.00067837104586940548 0.0046138697844128641 0 0 0.0012422501150369915 -0.0017032938810858647 0.0011176017420548826 -0.00016954414184709349 0 -0.001179974488961814 0 -0.00042292544984770704 0.0032489103064161605 -0.00018715627278672895 0.001230053274108075 0 0 -0.00063384400103384038 6.8521415849198287e-06 0.0016691837055058582 -0.00010430419011186467 0.00062145797033775661 0 -0.00097034950393896262 0 -0.00029010754229992302 -0.0016032041338293111 0.00043355684769704335 0.00045349062143565497
leaf_weight=696 210 146 228 58 39 83 66 281 230 30 150 37 1151 221 44 177 25 28 147 124 559 85 112 31 23 20 110 984 42 23
leaf_count=696 210 146 228 58 39 83 66 281 230 30 150 37 1151 221 44 177 25 28 147 124 559 85 112 31 23 20 110 984 42 23
internal_value=0 -0.000775126 0.00228641 -0.000197348 0.00157965 0.00029068 -0.00045953 0.00058423 0.000150662 0.00132115 -0.000595292 0.000954027 -0.000524476 0.00398836 0.000756584 0.000979285 -0.00161814 0.00155014 0 -0.00027643 0.00160973 -0.000260512 0.000340612 -0.000500625 -0.00016786 -0.00164674 -0.00165754 -0.00148765 0 0
internal_weight=0 4601 1559 2743 1110 935 1808 631 313 900 1367 318 1301 449 283 216 1858 617 441 271 589 304 170 177 48 1810 1790 1094 127 67
internal_count=6160 4601 1559 2743 1110 935 1808 631 313 900 1367 318 1301 449 283 216 1858 617 441 271 589 304 170 177 48 1810 1790 1094 127 67
is_linear=0
shrinkage=0.0103406


Tree=15
num_leaves=31
num_cat=0
split_feature=14 14 14 1 14 2 5 0 5 5 5 30 2 21 1 39 43 24 5 4 5 44 2 20 5 5 26 26 27 40
split_gain=100.073 20.237 16.2294 3.24483 2.02497 1.43989 1.08507 0.94266 0.748037 1.04938 0.829478 0.616422 1.06977 0.690009 0.507733 0.408747 0.370094 0.35592 0.328842 0.313667 0.286459 0.22656 0.218341 0.215342 0.171347 0.0887574 0.101288 0.172541 0.050704 0.0491908
threshold=0.52168204982502331 -0.38110936808137263 1.0343579194185566 -0.2287852384987028 0.72983924083456708 0.13364496255252276 -0.76245917110610284 -0.16999692591454038 0.16351537403718508 -0.18206495623674204 0.32375016910908516 -0.48091754268995618 0.38079474623456205 0.37223678720256509 -1.3387286154332736 1.0000000180025095e-35 0.30182819136667799 0.2547355958958169 -0.69590418540906118 0.61696398859462842 -0.188975191028985 0.35806695341527861 -0.54836021505555066 0.51978951878572788 -0.67711860386993361 -0.35814756836596812 -0.8445463812436288 -0.4174311926605504 -0.36059907834101373 0.40727937943297077
decision_type=2 2 2 2 2 2 2 2 2 2 2 2 2 2 2 2 2 2 2 2 2 2 2 2 2 2 2 2 2 2
left_child=1 15 4 5 6 21 19 16 9 -7 -10 12 -9 -13 -4 25 22 -18 -6 -2 23 -3 -5 -8 -20 -1 -27 -28 -17 -23
right_child=2 3 14 7 18 8 20 11 10 -11 -12 13 -14 -15 -16 28 17 -19 24 -21 -22 29 -24 -25 -26 26 27 -29 -30 -31
leaf_value=0 0.00044616126576515092 0 0.004566326807357985 0 0.0022185603150705977 0.001309210053484635 0.0013806699961778511 -0.0015023234044476922 0.0012922956148811032 -1.238675645006255e-05 0 -0.00063688367579804316 0 -3.113847006827086e-05 0.0032154360478225089 0 0.00013024888586676711 -0.0005516493500721685 0 -0.00083788915494182605 0 -0.00064947375117002833 0.000615077422739195 0 0.0013347798760305015 -0.001880815296451238 -0.0012130299782856741 -0.0017264559338495287 -0.0005313597802214156 0
leaf_weight=22 52 166 228 58 453 74 389 184 217 291 49 768 56 359 221 25 85 186 21 32 35 117 112 28 100 694 578 516 23 21
leaf_count=22 52 166 228 58 453 74 389 184 217 291 49 768 56 359 221 25 85 186 21 32 35 117 112 28 100 694 578 516 23 21
internal_value=0 -0.000767345 0.00226342 -0.000195425 0.00156384 0.000287493 0.00103351 -0.000454962 0.000578041 0.000209466 0.00101532 -0.000589424 -0.00112119 -0.000459775 0.00394767 -0.00160172 0 -0.000272917 0.00202615 0 0.00123391 -0.000257469 0.000336398 0.00131278 0.00115067 -0.00163 -0.00164161 -0.00147244 -0.000163131 -0.000565776
internal_weight=0 4601 1559 2743 1110 935 536 1808 631 365 266 1367 240 1127 449 1858 441 271 574 84 452 304 170 417 121 1810 1788 1094 48 138
internal_count=6160 4601 1559 2743 1110 935 536 1808 631 365 266 1367 240 1127 449 1858 441 271 574 84 452 304 170 417 121 1810 1788 1094 48 138
is_linear=0
shrinkage=0.0103406


Tree=16
num_leaves=31
num_cat=0
split_feature=14 14 14 1 14 2 5 0 0 5 8 12 5 41 21 39 7 2 4 5 44 20 8 8 25 36 40 43 25 5
split_gain=98.0778 19.8251 15.8868 3.17725 1.97816 1.41102 1.06363 0.924541 0.734948 1.16064 0.611902 0.606447 0.559558 0.529281 0.511517 0.39638 0.362644 0.633411 0.307352 0.278319 0.222051 0.208339 0.192088 0.14532 0.0954846 0.0892569 0.0479681 0.0451832 0.0387787 0.0196008
threshold=0.52168204982502331 -0.38110936808137263 1.0343579194185566 -0.2287852384987028 0.72983924083456708 0.13364496255252276 -0.76245917110610284 -0.16999692591454038 -0.14555794651091297 -0.17295091903661999 -0.44406929224201919 -0.73817753887945481 0.33007667465336504 -0.57710944245877582 0.38151416054932102 1.0000000180025095e-35 -0.53682833052660184 -0.10361026000316949 0.61696398859462842 -0.188975191028985 0.35806695341527861 0.51978951878572788 0.77771031018617187 -0.38159278503734984 0.197171381031614 -0.14920709693029274 0.40727937943297077 -0.0097950408465680809 0.53826955074875216 0.13228849933356915
decision_type=2 2 2 2 2 2 2 2 2 2 2 2 2 2 2 2 2 2 2 2 2 2 2 2 2 2 2 2 2 2
left_child=1 15 4 5 6 20 18 16 9 -7 -6 27 -10 -13 -4 25 24 -18 -2 21 28 -8 -17 -12 -5 29 -22 -9 -3 -1
right_child=2 3 14 7 10 8 19 11 12 -11 23 13 -14 -15 -16 22 17 -19 -20 -21 26 -23 -24 -25 -26 -27 -28 -29 -30 -31
leaf_value=-0.0012010724105722672 0.00044161779750981014 -6.0500932988228809e-05 0.0040129890017900887 -0.0013483947625003471 0.0021378861175896519 0.0012175866806551901 0.0013664224361415954 0 0.0010959089969382056 -0.00016778854831880577 0 -0.0011617130185050297 0 -0.00041308280130803891 0.00087531890342190156 0 -0.00027298737031238772 0.000541451521713785 -0.00082943679120402712 0 -0.00064280354415658595 0 -0.00095696016985370117 0.0009745982335447182 0 0 0 -0.0020253975922195802 0.00040707511668392903 -0.0016966957871209839
leaf_weight=300 52 145 428 25 516 83 389 20 281 230 26 150 37 1151 21 25 201 186 32 35 117 28 23 32 29 20 21 46 21 1490
leaf_count=300 52 145 428 25 516 83 389 20 281 230 26 150 37 1151 21 25 201 186 32 35 117 28 23 32 29 20 21 46 21 1490
internal_value=0 -0.00075968 0.00224072 -0.000193534 0.00154828 0.000284203 0.00102323 -0.000450392 0.000571925 0.000145366 0.00200567 -0.000583551 0.000934852 -0.000513652 0.0039074 -0.00158553 0 7.31319e-05 0 0.00122164 -0.000254891 0.00129948 -0.000160541 0.000515369 -0.000818371 -0.00161346 -0.000560115 -0.00167384 0 -0.00162409
internal_weight=0 4601 1559 2743 1110 935 536 1808 631 313 574 1367 318 1301 449 1858 441 387 84 452 304 417 48 58 54 1810 138 66 166 1790
internal_count=6160 4601 1559 2743 1110 935 536 1808 631 313 574 1367 318 1301 449 1858 441 387 84 452 304 417 48 58 54 1810 138 66 166 1790
is_linear=0
shrinkage=0.0103406


Tree=17
num_leaves=31
num_cat=0
split_feature=14 14 1 1 0 2 0 0 5 5 5 5 30 2 23 39 43 1 7 8 8 44 2 0 8 5 26 26 0 40
split_gain=96.1232 19.4101 15.557 3.11401 2.31592 1.38269 0.904459 0.797146 0.719725 1.01138 0.803634 0.636075 0.597868 1.04497 0.673304 0.386903 0.358502 0.350679 0.319594 0.244778 0.313993 0.217645 0.211422 0.189041 0.188708 0.0834652 0.102805 0.169838 0.0587659 0.0467725
threshold=0.52168204982502331 -0.38110936808137263 -0.95674165838732084 -0.2287852384987028 -1.1667179014243261 0.13364496255252276 -0.16999692591454038 -0.73240086074392863 0.16351537403718508 -0.18206495623674204 0.32375016910908516 -0.76245917110610284 -0.48091754268995618 0.38079474623456205 -0.18487828918215907 1.0000000180025095e-35 0.30182819136667799 0.18359090050020185 -1.1712838498167195 -0.62723925767372324 -0.21944818976276478 0.35806695341527861 -0.54836021505555066 -0.66533456296751703 0.77771031018617187 -0.35814756836596812 -0.8445463812436288 -0.4174311926605504 -0.95952454144891886 0.40727937943297077
decision_type=2 2 2 2 2 2 2 2 2 2 2 2 2 2 2 2 2 2 2 2 2 2 2 2 2 2 2 2 2 2
left_child=1 15 4 5 -2 21 16 18 9 -7 -10 23 13 -8 -14 25 22 -18 -4 -13 -21 -3 -5 -9 -17 -1 -27 -28 -20 -23
right_child=2 3 7 6 -6 8 12 11 10 -11 -12 19 14 -15 -16 24 17 -19 28 20 -22 29 -24 -25 -26 26 27 -29 -30 -31
leaf_value=0 0.0041569513452807596 0 0 0 0.0025679186098908472 0.0012833615966045923 -0.0014789761467914699 -0.00048863167773837747 0.0012678111119695773 -1.3567944415616431e-05 0 0 0.00038278264031112392 0 -0.00052374942328624818 0 -0.00062179288683917721 8.9266140076656331e-06 0.0023763739514735382 0.0013594922671317173 0.00016959233229693155 -0.00063620183079050538 0.00060496816350512491 0.00051606767609118894 -0.00094739811480130194 -0.0018455728737454653 -0.0011835323606537035 -0.0016915894861617082 0.0014905554276424605 0
leaf_weight=22 354 166 27 58 262 74 184 35 217 291 49 20 72 56 1055 25 147 124 114 256 66 117 112 43 23 694 578 516 382 21
leaf_count=22 354 166 27 58 262 74 184 35 217 291 49 20 72 56 1055 25 147 124 114 256 66 117 112 43 23 694 578 516 382 21
internal_value=0 -0.000752161 0.00221819 -0.000191892 0.003514 0.000280944 -0.000446215 0.00135071 0.000565862 0.000203238 0.000995021 0.000910417 -0.000577935 -0.00110212 -0.000449914 -0.00156934 0 -0.000268924 0.00166858 0.00110266 0.00117144 -0.000252332 0.00033068 0 -0.000155877 -0.00159697 -0.00160831 -0.00144039 0.00173328 -0.000554512
internal_weight=0 4601 1559 2743 616 935 1808 943 631 365 266 420 1367 240 1127 1858 441 271 523 342 322 304 170 78 48 1810 1788 1094 496 138
internal_count=6160 4601 1559 2743 616 935 1808 943 631 365 266 420 1367 240 1127 1858 441 271 523 342 322 304 170 78 48 1810 1788 1094 496 138
is_linear=0
shrinkage=0.0103406


Tree=18
num_leaves=31
num_cat=0
split_feature=14 14 14 1 1 2 0 0 5 2 9 5 41 1 23 36 8 39 7 2 16 8 11 8 25 36 26 5 25 5
split_gain=94.2033 19.0173 15.2271 3.04738 1.90017 1.35497 0.88619 0.707464 1.11803 0.66233 0.589681 0.541637 0.518841 0.485039 0.410857 0.464157 0.383135 0.377754 0.353585 0.616699 0.284779 0.213873 0.207478 0.185382 0.0921481 0.0879137 0.0882466 1.07486 0.082211 0.0529288
threshold=0.52168204982502331 -0.38110936808137263 1.0343579194185566 -0.2287852384987028 -0.95674165838732084 0.13364496255252276 -0.16999692591454038 -0.14555794651091297 -0.17295091903661999 -0.35498252293051397 -0.73817753887945481 0.33007667465336504 -0.57710944245877582 -1.3387286154332736 0.8617836806181931 0.63469152082921354 -0.18237151828651244 1.0000000180025095e-35 -0.53682833052660184 -0.10361026000316949 -0.21990857866184763 0.11757925120756692 0.55079372004119265 0.77771031018617187 0.197171381031614 -0.14920709693029274 -0.8445463812436288 0.13683561561795768 0.29866888519134782 -0.35814756836596812
decision_type=2 2 2 2 2 2 2 2 2 2 2 2 2 2 2 2 2 2 2 2 2 2 2 2 2 2 2 2 2 2
left_child=1 17 4 5 -2 21 18 8 -7 14 -8 -9 -12 -4 15 -6 20 25 24 -20 -11 22 -3 -19 -5 26 29 -28 -23 -1
right_child=2 3 13 6 9 7 10 11 -10 16 12 -13 -14 -15 -16 -17 -18 23 19 -21 -22 28 -24 -25 -26 -27 27 -29 -30 -31
leaf_value=0 0.0024971744236912722 -0.00066065922626731529 0.0044350880121670471 -0.0013301578692199807 0 0.001193413185763889 -0.0016478186419203978 0.0010746355830542401 -0.00016603695823299956 0 -0.0011440980922533795 0 -0.00040307238624232602 0.0031086980935765528 0 0.001122262471474433 0 0 -0.00026879067334033394 0.00053452024470158411 0.0016057321346345222 -9.7017028005381146e-05 0 -0.00093793161717150946 0 0 -0.00024562117004678043 -0.0015393275734455307 0.00043186887812324363 -0.0018530767402240738
leaf_weight=20 210 146 228 25 27 83 66 281 230 30 150 37 1151 221 67 189 28 25 201 186 559 85 31 23 29 20 110 984 42 676
leaf_count=20 210 146 228 25 27 83 66 281 230 30 150 37 1151 221 67 189 28 25 201 186 559 85 31 23 29 20 110 984 42 676
internal_value=0 -0.000744549 0.00219599 -0.000189902 0.00151751 0.00027772 -0.000441529 0.00055987 0.000140199 0.00126725 -0.000571909 0.000916048 -0.000502754 0.00382828 0.000715986 0.000934717 0.00149021 -0.00155343 0 7.1977e-05 0.00154777 -0.000249806 -0.000485383 -0.00015126 -0.000808234 -0.00158076 -0.00159121 -0.00142568 0 -0.00182406
internal_weight=0 4601 1559 2743 1110 935 1808 631 313 900 1367 318 1301 449 283 216 617 1858 441 387 589 304 177 48 54 1810 1790 1094 127 696
internal_count=6160 4601 1559 2743 1110 935 1808 631 313 900 1367 318 1301 449 283 216 617 1858 441 387 589 304 177 48 54 1810 1790 1094 127 696
is_linear=0
shrinkage=0.0103406


Tree=19
num_leaves=31
num_cat=0
split_feature=14 14 1 1 0 2 0 14 5 5 5 5 8 30 2 21 39 7 2 4 8 8 44 8 7 25 36 40 25 5
split_gain=92.3263 18.6277 14.9135 2.98706 2.20856 1.32649 0.866493 0.771017 0.952579 0.69245 0.974752 0.778658 0.614014 0.581139 1.0208 0.670027 0.368889 0.347781 0.604306 0.285527 0.283412 0.310589 0.211436 0.18211 0.132023 0.0888139 0.0823124 0.0455653 0.0371953 0.01287
threshold=0.52168204982502331 -0.38110936808137263 -0.95674165838732084 -0.2287852384987028 -1.1667179014243261 0.13364496255252276 -0.16999692591454038 0.72983924083456708 -0.76245917110610284 0.16351537403718508 -0.18206495623674204 0.32375016910908516 -0.5237330980157745 -0.48091754268995618 0.38079474623456205 0.37223678720256509 1.0000000180025095e-35 -0.53682833052660184 -0.10361026000316949 0.61696398859462842 -0.21944818976276478 -0.62723925767372324 0.35806695341527861 0.77771031018617187 -1.1477452787079947 0.197171381031614 -0.14920709693029274 0.40727937943297077 0.53826955074875216 0.13228849933356915
decision_type=2 2 2 2 2 2 2 2 2 2 2 2 2 2 2 2 2 2 2 2 2 2 2 2 2 2 2 2 2 2
left_child=1 16 4 5 -2 22 17 8 19 10 -7 -11 -9 14 -8 -15 26 25 -19 -4 21 -10 28 -18 -14 -5 29 -24 -3 -1
right_child=2 3 7 6 -6 9 13 12 20 11 -12 -13 24 15 -16 -17 23 18 -20 -21 -22 -23 27 -25 -26 -27 -28 -29 -30 -31
leaf_value=-0.0011608280646084549 0.0040731940243101741 -5.7408289600087485e-05 0.000424296502988293 -0.001316830908458758 0.002514427121624566 0.0012580249789191694 -0.0014560353087832829 0.0019810590813856472 0 0.0012437958343256791 -1.4699413480424037e-05 0 0 -0.00061381040484209833 0 -1.7768483635482031e-05 0 -0.00026602226728615191 0.00052901671751590009 -0.00081309152401224803 0.00017503233406936713 0.0013691070856843783 -0.00062527278909491806 -0.00092855973143259496 0.00085474086514503178 0 0 0 0.0004004785087449457 -0.0016459455034149009
leaf_weight=300 354 145 52 25 262 74 184 319 24 217 291 49 20 768 56 359 25 201 186 31 67 357 117 23 73 29 20 21 21 1490
leaf_count=300 354 145 52 25 262 74 184 319 24 217 291 49 20 768 56 359 25 201 186 31 67 357 117 23 73 29 20 21 21 1490
internal_value=0 -0.000737197 0.0021739 -0.000188184 0.00344303 0.000274667 -0.000437343 0.00132389 0.000976776 0.000553931 0.000197154 0.000975109 0.00172563 -0.000566282 -0.00108339 -0.000439781 -0.00153777 0 7.07666e-05 0 0.00116511 0.00129215 -0.00024687 -0.000146689 0.000651394 -0.00080196 -0.0015648 -0.000544714 0 -0.00157508
internal_weight=0 4601 1559 2743 616 935 1808 943 531 631 365 266 412 1367 240 1127 1858 441 387 83 448 381 304 48 93 54 1810 138 166 1790
internal_count=6160 4601 1559 2743 616 935 1808 943 531 631 365 266 412 1367 240 1127 1858 441 387 83 448 381 304 48 93 54 1810 138 166 1790
is_linear=0
shrinkage=0.0103406


Tree=20
num_leaves=31
num_cat=0
split_feature=14 14 14 1 14 2 5 0 0 5 8 9 5 41 21 39 43 1 2 4 8 5 8 11 2 8 25 36 26 5
split_gain=90.4849 18.2404 14.6037 2.92644 1.82556 1.29988 0.932245 0.84699 0.680983 1.07698 0.570151 0.569036 0.524332 0.507187 0.482276 0.360046 0.345025 0.341444 0.330326 0.289518 0.265134 0.300731 0.207444 0.202891 0.201645 0.17889 0.0801679 0.076795 0.0897201 1.04159
threshold=0.52168204982502331 -0.38110936808137263 1.0343579194185566 -0.2287852384987028 0.70696176864404514 0.13364496255252276 -0.76245917110610284 -0.16999692591454038 -0.14555794651091297 -0.17295091903661999 -0.5237330980157745 -0.73817753887945481 0.33007667465336504 -0.57710944245877582 0.38151416054932102 1.0000000180025095e-35 0.30182819136667799 0.18359090050020185 -0.49034831521752836 0.61696398859462842 -0.62723925767372324 -0.188975191028985 0.11757925120756692 0.55079372004119265 -0.54836021505555066 0.77771031018617187 0.29866888519134782 -0.14920709693029274 -0.8445463812436288 0.13683561561795768
decision_type=2 2 2 2 2 2 2 2 2 2 2 2 2 2 2 2 2 2 2 2 2 2 2 2 2 2 2 2 2 2
left_child=1 15 4 5 6 22 19 16 9 -7 -6 -9 -10 -13 -4 27 24 -18 -12 -2 -8 -22 23 -3 -5 -17 -24 28 -1 -30
right_child=2 3 14 7 10 8 20 11 12 -11 18 13 -14 -15 -16 25 17 -19 -20 -21 21 -23 26 -25 -26 -27 -28 -29 29 -31
leaf_value=-0.0017898415387082381 0.0004160410916892826 -0.00065029985246201343 0.00385341721484241 0 0.0021225085365718754 0.001169719931055493 0 -0.0016193235229406994 0.0010537734116180249 -0.00016428992431610206 5.0294970481278378e-05 -0.0011264362147570791 0 -0.00039366058428438676 0.00079040020384141903 0 -0.00061287202869769232 8.0107411106256131e-06 0.0014602425759077111 -0.00081878927748715077 0.0012892834423723462 0 -9.3751836137501919e-05 0 0.0005913019346326597 -0.0009192814659533848 0.00042738185709201954 0 -0.00023118293864789137 -0.0015064167684951662
leaf_weight=696 51 146 428 58 467 83 20 66 281 230 56 150 37 1151 21 25 147 124 98 32 354 32 85 31 112 23 42 20 110 984
leaf_count=696 51 146 428 58 467 83 20 66 281 230 56 150 37 1151 21 25 147 124 98 32 354 32 85 31 112 23 42 20 110 984
internal_value=0 -0.000729849 0.00215207 -0.000186495 0.00148706 0.000271511 0.000936509 -0.000433149 0.00054806 0.000135157 0.00189037 -0.000560645 0.000897607 -0.000492381 0.00375116 -0.00152207 0 -0.000264493 0.00106475 0 0.00114063 0.00120067 -0.000244391 -0.000476595 0.000323532 -0.000142164 0 -0.00154881 -0.00155891 -0.00139462
internal_weight=0 4601 1559 2743 1110 935 489 1808 631 313 621 1367 318 1301 449 1858 441 271 154 83 406 386 304 177 170 48 127 1810 1790 1094
internal_count=6160 4601 1559 2743 1110 935 489 1808 631 313 621 1367 318 1301 449 1858 441 271 154 83 406 386 304 177 170 48 127 1810 1790 1094
is_linear=0
shrinkage=0.0103406


Tree=21
num_leaves=31
num_cat=0
split_feature=14 14 1 1 0 2 0 0 5 5 5 5 30 2 8 39 7 2 7 8 8 44 0 8 25 5 26 26 40 0
split_gain=88.6798 17.8677 14.3209 2.86693 2.10019 1.27254 0.831007 0.729828 0.666172 0.939456 0.75452 0.59243 0.563987 0.997255 0.657698 0.351501 0.33909 0.588367 0.305717 0.230456 0.285553 0.2054 0.179675 0.175722 0.0856658 0.0773965 0.0905476 0.176287 0.0443918 0.0439978
threshold=0.52168204982502331 -0.38110936808137263 -0.95674165838732084 -0.2287852384987028 -1.1667179014243261 0.13364496255252276 -0.16999692591454038 -0.73240086074392863 0.16351537403718508 -0.18206495623674204 0.32375016910908516 -0.76245917110610284 -0.48091754268995618 0.38079474623456205 0.32542968579063941 1.0000000180025095e-35 -0.53682833052660184 -0.10361026000316949 -1.1712838498167195 -0.62723925767372324 -0.21944818976276478 0.35806695341527861 -0.66533456296751703 0.77771031018617187 0.197171381031614 -0.35814756836596812 -0.8445463812436288 -0.4174311926605504 0.40727937943297077 -0.95952454144891886
decision_type=2 2 2 2 2 2 2 2 2 2 2 2 2 2 2 2 2 2 2 2 2 2 2 2 2 2 2 2 2 2
left_child=1 15 4 5 -2 21 16 18 9 -7 -10 22 13 -8 -14 25 24 -18 -4 -13 -21 -3 -9 -17 -5 -1 -27 -28 -23 -20
right_child=2 3 7 6 -6 8 12 11 10 -11 -12 19 14 -15 -16 23 17 -19 29 20 -22 28 -24 -25 -26 26 27 -29 -30 -31
leaf_value=0 0.0039916388386034146 0 0 -0.0012989749154697033 0.0024637354972453789 0.0012331897755143758 -0.0014334810070481061 -0.00048468088230791361 0.0012202407095016636 -1.5782646412703732e-05 0 0 -0.00017375650879706994 0 -0.0007289398470618232 0 -0.00026191039914395554 0.00052225928095131827 0.0022884120286562823 0.0013037233264506587 0.00015265334343141104 -0.00061453055704771044 0.00049659252448768486 -0.00091009590673589024 0 -0.001774527906406287 -0.0011262460693836061 -0.0016286181540944751 0 0.0014294828623741549
leaf_weight=22 354 166 27 25 262 74 184 35 217 291 49 20 639 56 488 25 201 186 114 256 66 117 43 23 29 694 578 516 21 382
leaf_count=22 354 166 27 25 262 74 184 35 217 291 49 20 639 56 488 25 201 186 114 256 66 117 43 23 29 694 578 516 21 382
internal_value=0 -0.000722532 0.0021305 -0.000184681 0.00337452 0.000268523 -0.000428851 0.00129693 0.000542243 0.000191212 0.000955579 0.000871383 -0.000555134 -0.00106497 -0.000430192 -0.00150663 0 6.96513e-05 0.00160304 0.00105682 0.00112357 -0.000241508 0 -0.000137684 -0.000792017 -0.00153309 -0.00154398 -0.00138038 -0.000535083 0.00166589
internal_weight=0 4601 1559 2743 616 935 1808 943 631 365 266 420 1367 240 1127 1858 441 387 523 342 322 304 78 48 54 1810 1788 1094 138 496
internal_count=6160 4601 1559 2743 616 935 1808 943 631 365 266 420 1367 240 1127 1858 441 387 523 342 322 304 78 48 54 1810 1788 1094 138 496
is_linear=0
shrinkage=0.0103406


Tree=22
num_leaves=31
num_cat=0
split_feature=14 14 1 1 0 2 0 0 0 5 5 11 7 5 39 43 24 7 8 8 26 8 11 2 0 8 25 36 26 5
split_gain=86.9196 17.4992 14.0135 2.80879 2.04559 1.24697 0.812272 0.710832 0.655469 1.03743 0.580895 0.550993 0.698575 0.507619 0.343164 0.334209 0.335621 0.295975 0.226039 0.275885 0.216834 0.201444 0.198393 0.195247 0.176052 0.172604 0.0787282 0.0757223 0.0402764 0.00919603
threshold=0.52168204982502331 -0.38110936808137263 -0.95674165838732084 -0.2287852384987028 -1.1667179014243261 0.13364496255252276 -0.16999692591454038 -0.73240086074392863 -0.14555794651091297 -0.17295091903661999 -0.76245917110610284 0.71262583787899392 0.010284484832161463 0.33007667465336504 1.0000000180025095e-35 0.30182819136667799 0.2547355958958169 -1.1712838498167195 -0.62723925767372324 -0.21944818976276478 -0.22171253822629966 0.11757925120756692 0.55079372004119265 -0.54836021505555066 -0.66533456296751703 0.77771031018617187 0.29866888519134782 -0.14920709693029274 0.10346585117227321 0.13228849933356915
decision_type=2 2 2 2 2 2 2 2 2 2 2 2 2 2 2 2 2 2 2 2 2 2 2 2 2 2 2 2 2 2
left_child=1 14 4 5 -2 21 15 17 9 -7 24 12 -8 -10 27 23 -17 -4 -12 -20 -13 22 -3 -5 -9 -16 -23 29 -19 -1
right_child=2 3 7 6 -6 8 11 10 13 -11 18 20 -14 -15 25 16 -18 28 19 -21 -22 26 -24 -25 -26 -27 -28 -29 -30 -31
leaf_value=-0.0011208334881442539 0.0039504562636718402 -0.0006402357181166966 0 0 0.0024383367518141619 0.0011464972401055847 -0.00033798946158904928 -0.0004797812583707041 0.001033314481397412 -0.00016254795040348744 0 -0.00031600197803107345 -0.0008907755891645287 0 0 0.00012738036017348147 -0.00053243790179063573 0 0.0012902841290779842 0.00015109377955446263 0.00055634805411402903 -9.0939925971398006e-05 0 0.00058156904344803357 0.00049155148309826366 -0.00090100215515703265 0.00042438148459141093 0 0.0016860066174989622 -0.0015968250808044405
leaf_weight=300 354 146 27 58 262 83 674 35 281 230 20 41 591 37 25 85 186 20 256 66 61 85 31 112 43 23 42 20 476 1490
leaf_count=300 354 146 27 58 262 83 674 35 281 230 20 41 591 37 25 85 186 20 256 66 61 85 31 112 43 23 42 20 476 1490
internal_value=0 -0.000715381 0.00210919 -0.000183027 0.00334001 0.000265433 -0.000424743 0.00128428 0.000536491 0.000130236 0.000862826 -0.000549611 -0.000610627 0.000879522 -0.00149137 0 -0.000260619 0.00158711 0.00104645 0.00111256 3.38494e-05 -0.000239069 -0.000468107 0.000318024 0 -0.000133249 0 -0.00151754 0.00164909 -0.00152747
internal_weight=0 4601 1559 2743 616 935 1808 943 631 313 420 1367 1265 318 1858 441 271 523 342 322 102 304 177 170 78 48 127 1810 496 1790
internal_count=6160 4601 1559 2743 616 935 1808 943 631 313 420 1367 1265 318 1858 441 271 523 342 322 102 304 177 170 78 48 127 1810 496 1790
is_linear=0
shrinkage=0.0103406


Tree=23
num_leaves=31
num_cat=0
split_feature=14 0 14 2 14 1 0 5 5 38 30 1 8 25 2 8 30 15 21 36 41 2 5 4 8 5 39 16 16 35
split_gain=85.1827 17.153 13.7134 2.14964 1.7117 1.39455 1.24602 1.05931 0.887128 0.882905 0.8168 0.728281 0.781359 0.738021 0.680618 0.539976 0.492213 0.469053 0.447751 0.429284 0.34338 0.319847 0.286554 0.283461 0.249782 0.282719 0.162608 0.0863369 0.0666056 0.0633209
threshold=0.52168204982502331 0.30305359155651196 1.0343579194185566 -0.045980875240258755 0.70696176864404514 -0.2513976986476763 -0.14555794651091297 -0.188975191028985 -0.76245917110610284 -0.10236462277769116 -0.55317843009035628 0.81337067738493007 0.39878793630459652 0.11231281198003329 -0.56338391367601737 -0.5237330980157745 0.50535354610485284 -0.39663020008784966 0.38151416054932102 -0.41216344533319416 -0.12902598630502324 -0.49034831521752836 0.32375016910908516 0.61696398859462842 -0.62723925767372324 -0.188975191028985 0.013880351070482447 -0.59580333953084941 0.59561913071202943 -0.30847149002410962
decision_type=2 2 2 2 2 2 2 2 2 2 2 2 2 2 2 2 2 2 2 2 2 2 2 2 2 2 2 2 2 2
left_child=1 3 4 10 8 6 7 -5 23 17 -1 12 -7 -13 16 -6 -12 26 -4 29 -16 -17 -8 -2 -10 -26 28 -11 -3 -19
right_child=2 9 18 5 15 11 22 -9 24 27 14 13 -14 -15 20 21 -18 19 -20 -21 -22 -23 -24 -25 25 -27 -28 -29 -30 -31
leaf_value=-0.0014006758461916537 0.00040557378360809817 -0.0014715748856604111 0.0037377587516295298 0.0012933882596099812 0.0020610462648211433 0.0001332908552318792 0.0010853938759991218 -0.00014860012504033205 0 -0.00057149960938999121 -0.00080600506559986359 -0.0014172684613267116 -0.00080445365488164468 0 0.00054764969255790121 2.7318944109251709e-05 0.00010478516846911729 0 0.00074106013086417939 -0.0011772898398999939 -0.00020244215122880178 0.0014117367400547799 0 -0.00081501831499827034 0.0012507274346804881 0 0 0.00024990242430912905 -0.0022604376350820001 -0.00039721285102798054
leaf_weight=109 51 1510 428 63 467 593 269 326 20 21 356 86 112 38 74 56 37 41 21 358 359 98 26 32 354 32 20 33 108 62
leaf_count=109 51 1510 428 63 467 593 269 326 20 21 356 86 112 38 74 56 37 41 21 358 359 98 26 32 354 32 20 33 108 62
internal_value=0 -0.000708127 0.00208808 -0.000108051 0.00144282 0.000123532 0.00047522 4.17237e-05 0.000907327 -0.00138192 -0.000501489 -0.000145497 0 -0.000874489 -0.000360186 0.00183432 -0.000675286 -0.00141554 0.00363851 -0.000992105 -3.26867e-05 0.00102536 0.000985366 0 0.00110652 0.0011648 -0.00152337 0 -0.00153626 -0.00017387
internal_weight=0 4601 1559 2448 1110 1513 684 389 489 2153 935 829 705 124 826 621 393 2099 449 461 433 154 295 83 406 386 1638 54 1618 103
internal_count=6160 4601 1559 2448 1110 1513 684 389 489 2153 935 829 705 124 826 621 393 2099 449 461 433 154 295 83 406 386 1638 54 1618 103
is_linear=0
shrinkage=0.0103406


Tree=24
num_leaves=31
num_cat=0
split_feature=14 0 1 2 0 1 0 5 38 30 1 8 25 14 5 2 8 30 15 36 41 5 4 8 8 39 7 16 35 16
split_gain=83.4799 16.8067 13.4546 2.10566 1.94433 1.36568 1.22012 1.03791 0.865058 0.798961 0.711504 0.765385 0.725278 0.676053 0.868547 0.665489 0.553399 0.484401 0.454255 0.418155 0.336479 0.280933 0.266848 0.251209 0.283537 0.15651 0.120683 0.0846204 0.0622609 0.0602687
threshold=0.52168204982502331 0.30305359155651196 -0.95674165838732084 -0.045980875240258755 -1.1667179014243261 -0.2513976986476763 -0.14555794651091297 -0.188975191028985 -0.10236462277769116 -0.55317843009035628 0.81337067738493007 0.39878793630459652 0.11231281198003329 0.72983924083456708 -0.76245917110610284 -0.56338391367601737 -0.5237330980157745 0.50535354610485284 -0.39663020008784966 -0.41216344533319416 -0.12902598630502324 0.32375016910908516 0.61696398859462842 -0.21944818976276478 -0.62723925767372324 0.013880351070482447 -1.1477452787079947 -0.59580333953084941 -0.30847149002410962 0.59561913071202943
decision_type=2 2 2 2 2 2 2 2 2 2 2 2 2 2 2 2 2 2 2 2 2 2 2 2 2 2 2 2 2 2
left_child=1 3 4 9 -2 6 7 -5 18 -1 11 -7 -12 14 22 17 -15 -11 25 28 -17 -8 -4 24 -16 29 -18 -10 -20 -3
right_child=2 8 13 5 -6 10 21 -9 27 15 12 -13 -14 16 23 20 26 -19 19 -21 -22 -23 -24 -25 -26 -27 -28 -29 -30 -31
leaf_value=-0.0013862978278983342 0.0038713551790505517 -0.0014563659780308879 0.00040502546393602728 0.0012801819787489719 0.0023891616169855264 0.00013191441058845509 0.0010742036153684274 -0.00014706728784682601 -0.00056580736818792805 -0.00079768922253405691 -0.0014027485127903292 -0.00079619427896445566 0 0.0018830104184626275 0 0.0005420474021236711 0 0.00010372462201562389 0 -0.0011651431834830478 -0.00020035344537005243 0 -0.00079047483724451286 0.00015497891845180458 0.0013012381193093204 0 0.00080004364878492028 0.00024737960055879214 -0.00039315789691470466 -0.0022372356783052711
leaf_weight=109 354 1510 52 63 262 593 269 326 21 356 86 112 38 319 24 74 20 37 41 358 359 26 31 67 357 20 73 33 62 108
leaf_count=109 354 1510 52 63 262 593 269 326 21 356 86 112 38 319 24 74 20 37 41 358 359 26 31 67 357 20 73 33 62 108
internal_value=0 -0.000700955 0.00206716 -0.000106887 0.00327356 0.00012222 0.000470312 4.08472e-05 -0.00136791 -0.000496319 -0.00014384 0 -0.00086439 0.00125825 0.000927428 -0.000356244 0.00163913 -0.000667853 -0.0014012 -0.000982116 -3.19203e-05 0.000975159 0 0.0011073 0.00122775 -0.00150781 0.000605001 0 -0.000171417 -0.0015205
internal_weight=0 4601 1559 2448 616 1513 684 389 2153 935 829 705 124 943 531 826 412 393 2099 461 433 295 83 448 381 1638 93 54 103 1618
internal_count=6160 4601 1559 2448 616 1513 684 389 2153 935 829 705 124 943 531 826 412 393 2099 461 433 295 83 448 381 1638 93 54 103 1618
is_linear=0
shrinkage=0.0103406


Tree=25
num_leaves=31
num_cat=0
split_feature=14 14 1 1 0 2 0 0 2 5 5 5 9 41 7 2 39 8 26 10 5 44 8 29 5 26 26 43 40 29
split_gain=81.8098 16.4753 13.1672 2.63721 1.89327 1.18088 0.777105 0.664644 0.85911 0.625416 0.87722 0.706175 0.534732 0.48273 0.334061 0.556444 0.316886 0.30177 0.313579 0.284101 0.371767 0.196479 0.1654 0.0811315 0.0758796 0.105367 0.183468 0.0639354 0.042826 0.035537
threshold=0.52168204982502331 -0.38110936808137263 -0.95674165838732084 -0.2287852384987028 -1.1667179014243261 0.13364496255252276 -0.16999692591454038 -0.95952454144891886 -0.35498252293051397 0.16351537403718508 -0.18206495623674204 0.33007667465336504 -0.73817753887945481 -0.57710944245877582 -0.53682833052660184 -0.084417308233788374 1.0000000180025095e-35 -0.18237151828651244 0.48776758409785942 -2.2454315577070973 -0.66049381055256562 0.35806695341527861 0.77771031018617187 0.20574397936271374 -0.35814756836596812 -0.8445463812436288 -0.4174311926605504 -0.0097950408465680809 0.40727937943297077 0.53261765505545033
decision_type=2 2 2 2 2 2 2 2 2 2 2 2 2 2 2 2 2 2 2 2 2 2 2 2 2 2 2 2 2 2
left_child=1 16 4 5 -2 21 14 -4 19 10 -7 -11 27 -14 23 -16 24 18 -10 -9 -21 29 -18 -5 -1 -26 -27 -8 -23 -3
right_child=2 3 7 6 -6 9 12 8 17 11 -12 -13 13 -15 15 -17 22 -19 -20 20 -22 28 -24 -25 25 26 -28 -29 -30 -31
leaf_value=0 0.0038314135857013313 -5.0973757507218344e-05 0.0021591201135697899 -0.0012805556107219871 0.0023645317351523852 0.0011874521489747417 0 0.0013714545323284667 7.4455578126961347e-05 0.0011568716460984676 -1.8816512986572275e-05 0 -0.0010847049406519343 -0.00037026280629119532 -0.00023027402884550428 0.00053244324565727746 0 0 0.0014704326765446218 -7.0082483717665109e-05 0.0007028848072799848 -0.00059793020440579653 -0.00087962913160699054 0 -0.0017119041174259381 -0.0010684533000174983 -0.001565327454510106 -0.0019034898740087917 0 0.00039612318866218273
leaf_weight=22 354 145 116 25 262 74 20 39 46 225 291 41 150 1151 210 177 25 28 506 112 96 117 23 29 694 578 516 46 21 21
leaf_count=22 354 145 116 25 262 74 20 39 46 225 291 41 150 1151 210 177 25 28 506 112 96 117 23 29 694 578 516 46 21 21
internal_value=0 -0.000693857 0.00204643 -0.000177095 0.00324009 0.000257098 -0.000411433 0.00124586 0.00109442 0.000521151 0.000179439 0.000921774 -0.000533483 -0.000466845 0 7.33187e-05 -0.00144684 0.00133186 0.00138639 0.000462959 0.00020326 -0.000232866 -0.000122389 -0.000783433 -0.00147212 -0.00148267 -0.00131995 -0.00156082 -0.000520037 0
internal_weight=0 4601 1559 2743 616 935 1808 943 827 631 365 266 1367 1301 441 387 1858 580 552 247 208 304 48 54 1810 1788 1094 66 138 166
internal_count=6160 4601 1559 2743 616 935 1808 943 827 631 365 266 1367 1301 441 387 1858 580 552 247 208 304 48 54 1810 1788 1094 66 138 166
is_linear=0
shrinkage=0.0103406


Tree=26
num_leaves=31
num_cat=0
split_feature=14 0 1 2 1 1 0 5 38 30 1 8 2 14 5 8 29 30 15 36 41 5 4 8 8 39 7 16 35 16
split_gain=80.1905 16.1499 12.8846 2.03255 1.85047 1.30927 1.17652 0.99912 0.83468 0.770311 0.68717 0.743994 0.651205 0.650546 0.840964 0.531421 0.474938 0.47471 0.424593 0.411238 0.329545 0.272418 0.258053 0.237971 0.275742 0.147005 0.117143 0.0824286 0.0601677 0.059082
threshold=0.52168204982502331 0.30305359155651196 -0.95674165838732084 -0.045980875240258755 -1.2221412446424191 -0.2513976986476763 -0.14555794651091297 -0.188975191028985 -0.10236462277769116 -0.55317843009035628 0.81337067738493007 0.39878793630459652 -0.56338391367601737 0.72983924083456708 -0.76245917110610284 -0.5237330980157745 0.21569715204867471 0.50535354610485284 -0.39663020008784966 -0.41216344533319416 -0.12902598630502324 0.32375016910908516 0.61696398859462842 -0.21944818976276478 -0.62723925767372324 0.013880351070482447 -1.1477452787079947 -0.59580333953084941 -0.30847149002410962 0.59561913071202943
decision_type=2 2 2 2 2 2 2 2 2 2 2 2 2 2 2 2 2 2 2 2 2 2 2 2 2 2 2 2 2 2
left_child=1 3 4 9 -2 6 7 -5 18 -1 11 -7 17 14 22 -15 -12 -11 25 28 -14 -8 -4 24 -16 29 -17 -10 -20 -3
right_child=2 8 13 5 -6 10 21 -9 27 12 16 -13 20 15 23 26 -18 -19 19 -21 -22 -23 -24 -25 -26 -27 -28 -29 -30 -31
leaf_value=-0.0013621271527046893 0.0038196695638783589 -0.0014265056990113464 0.00039300049871773623 0.0012555074215521746 0.0023741485027156577 0.00013169877668745179 0.0010545976367753555 -0.0001447548291121271 -0.00055615286379134604 -0.00078604509919940366 -0.0011746738718020815 -0.00078354756311952193 0.00054034058702163187 0.0018479436887507683 0 0 0 0.00010438540142093581 0 -0.0011442982074207526 -0.00019542325180966683 0 -0.00078180062399414892 0.0001480991302821837 0.0012749082421011269 0 0.00078149553717887733 0.00024748743906420167 -0.00038017686996574861 -0.0021992816308752743
leaf_weight=109 341 1510 52 63 275 593 269 326 21 356 101 112 74 319 24 20 23 37 41 358 359 26 31 67 357 20 73 33 62 108
leaf_count=109 341 1510 52 63 275 593 269 326 21 356 101 112 74 319 24 20 23 37 41 358 359 26 31 67 357 20 73 33 62 108
internal_value=0 -0.000687065 0.00202597 -0.000104566 0.00320696 0.000120372 0.000461294 3.87473e-05 -0.00134088 -0.000487257 -0.00013977 0 -0.000349198 0.00123369 0.000907742 0.00160834 -0.000847729 -0.00065724 -0.00137357 -0.00096326 -2.81255e-05 0.00095705 0 0.00108478 0.0012025 -0.00147772 0.000589052 0 -0.000159582 -0.00149008
internal_weight=0 4601 1559 2448 616 1513 684 389 2153 935 829 705 826 943 531 412 124 393 2099 461 433 295 83 448 381 1638 93 54 103 1618
internal_count=6160 4601 1559 2448 616 1513 684 389 2153 935 829 705 826 943 531 412 124 393 2099 461 433 295 83 448 381 1638 93 54 103 1618
is_linear=0
shrinkage=0.0103406


Tree=27
num_leaves=31
num_cat=0
split_feature=14 0 14 2 14 1 0 5 5 38 30 1 8 25 2 8 30 1 15 36 41 2 5 4 8 5 39 16 35 16
split_gain=78.5869 15.824 12.6152 1.99097 1.56989 1.28214 1.15205 0.978933 0.827164 0.817816 0.753456 0.671279 0.728783 0.701673 0.636718 0.479954 0.467196 0.4334 0.410894 0.400624 0.322912 0.302351 0.267092 0.265486 0.234184 0.262179 0.14133 0.0807896 0.0591656 0.0531928
threshold=0.52168204982502331 0.30305359155651196 1.0343579194185566 -0.045980875240258755 0.70696176864404514 -0.2513976986476763 -0.14555794651091297 -0.188975191028985 -0.76245917110610284 -0.10236462277769116 -0.55317843009035628 0.81337067738493007 0.39878793630459652 0.11231281198003329 -0.56338391367601737 -0.5237330980157745 0.50535354610485284 -1.3387286154332736 -0.39663020008784966 -0.41216344533319416 -0.12902598630502324 -0.49034831521752836 0.32375016910908516 0.61696398859462842 -0.62723925767372324 -0.188975191028985 0.013880351070482447 -0.59580333953084941 -0.30847149002410962 0.62182220868023153
decision_type=2 2 2 2 2 2 2 2 2 2 2 2 2 2 2 2 2 2 2 2 2 2 2 2 2 2 2 2 2 2
left_child=1 3 4 10 8 6 7 -5 23 18 -1 12 -7 -13 16 -6 -12 -4 26 28 -16 -17 -8 -2 -10 -26 29 -11 -20 -3
right_child=2 9 17 5 15 11 22 -9 24 27 14 13 -14 -15 20 21 -18 -19 19 -21 -22 -23 -24 -25 25 -27 -28 -29 -30 -31
leaf_value=-0.0013481448546290606 0.00038525368652134786 -0.0014132918839786428 0.0040686241748684859 0.0012426880270175352 0.0019790690819760006 0.00013033876603693614 0.0010437249192781861 -0.00014326164618525152 0 -0.00055061352150910384 -0.00077793519462844411 -0.0013688640808817436 -0.00077550283460419767 0 0.00053481306752137399 6.6888366791791915e-06 0.00010332887620564866 0.002808478242348352 0 -0.0011324919262301087 -0.00019340696064357369 0.0013560358846608472 0 -0.00079437908260655073 0.001201224813485614 0 0 0.00024498900494862374 -0.00037629583330873182 -0.0021987894212579327
leaf_weight=109 51 1516 228 63 467 593 269 326 20 21 356 86 112 38 74 56 37 221 41 358 359 98 26 32 354 32 20 33 62 102
leaf_count=109 51 1516 228 63 467 593 269 326 20 21 356 86 112 38 74 56 37 221 41 358 359 98 26 32 354 32 20 33 62 102
internal_value=0 -0.000680109 0.00200566 -0.000103437 0.00138568 0.000119093 0.000456529 3.79008e-05 0.000869654 -0.0013273 -0.000482234 -0.000138171 0 -0.000837899 -0.000345369 0.00176191 -0.000649993 0.00349383 -0.00135966 -0.00095356 -2.74063e-05 0.000982243 0.000947133 0 0.00106209 0.00111852 -0.00146263 0 -0.000157234 -0.00147481
internal_weight=0 4601 1559 2448 1110 1513 684 389 489 2153 935 829 705 124 826 621 393 449 2099 461 433 154 295 83 406 386 1638 54 103 1618
internal_count=6160 4601 1559 2448 1110 1513 684 389 489 2153 935 829 705 124 826 621 393 449 2099 461 433 154 295 83 406 386 1638 54 103 1618
is_linear=0
shrinkage=0.0103406


Tree=28
num_leaves=31
num_cat=0
split_feature=14 14 1 1 0 2 0 0 2 1 5 5 11 7 7 2 39 8 26 10 5 26 44 8 36 26 5 25 5 40
split_gain=77.0183 15.5065 12.3805 2.47752 1.75445 1.1193 0.741506 0.617556 0.816325 0.599686 0.98608 0.529076 0.527134 0.649089 0.331245 0.530046 0.292505 0.284742 0.303735 0.27261 0.357892 0.209428 0.189629 0.15848 0.0814449 0.104777 1.0119 0.0770074 0.0550513 0.0413697
threshold=0.52168204982502331 -0.38110936808137263 -0.95674165838732084 -0.2287852384987028 -1.1667179014243261 0.13364496255252276 -0.16999692591454038 -0.95952454144891886 -0.35498252293051397 -0.40561569764160221 -0.17295091903661999 0.33007667465336504 0.71262583787899392 0.010284484832161463 -0.53682833052660184 -0.084417308233788374 1.0000000180025095e-35 -0.18237151828651244 0.48776758409785942 -2.2454315577070973 -0.66049381055256562 -0.22171253822629966 0.35806695341527861 0.77771031018617187 -0.14920709693029274 -0.8445463812436288 0.13683561561795768 0.197171381031614 -0.35814756836596812 0.40727937943297077
decision_type=2 2 2 2 2 2 2 2 2 2 2 2 2 2 2 2 2 2 2 2 2 2 2 2 2 2 2 2 2 2
left_child=1 16 4 5 -2 22 14 -4 19 10 -7 -11 13 -8 27 -16 24 18 -10 -9 -21 -14 -3 -18 25 28 -27 -5 -1 -24
right_child=2 3 7 6 -6 9 12 8 17 11 -12 -13 21 -15 15 -17 23 -19 -20 20 -22 -23 29 -25 -26 26 -28 -29 -30 -31
leaf_value=0 0.0037167900911187577 0 0.0020954330731117973 -0.0012663892835506469 0.0022928615866068197 0.0011278358748871308 -0.00031441319587468695 0.0013302913483771474 5.341146831926452e-05 0.00094234641625974298 -0.00023972788623406345 0 -0.00027472013488000999 -0.00084831914431139578 -0.00021777333766930313 0.00052471226879822975 0 0 0.0014275164969626893 -8.0590825000411708e-05 0.00068077761994066155 0.00056230572791120617 -0.00058591863073789209 -0.00085883322728492572 0 -0.00014087682410248757 -0.001385899236303275 0 -0.001690361641603214 0
leaf_weight=20 354 166 116 25 262 74 674 39 46 316 200 41 41 591 210 177 25 28 506 112 96 61 117 23 20 110 984 29 676 21
leaf_count=20 354 166 116 25 262 74 674 39 46 316 200 41 41 591 210 177 25 28 506 112 96 61 117 23 20 110 984 29 676 21
internal_value=0 -0.000673224 0.00198561 -0.000171666 0.00314361 0.000248817 -0.000398914 0.00120838 0.00106067 0.00050618 6.74396e-05 0.000792558 -0.000518079 -0.000578209 0 7.65693e-05 -0.00140377 0.00129231 0.00134526 0.000442928 0.000187334 5.42173e-05 -0.000227254 -0.000111843 -0.0014282 -0.00143784 -0.00127707 -0.000777706 -0.00166339 -0.000509403
internal_weight=0 4601 1559 2743 616 935 1808 943 827 631 274 357 1367 1265 441 387 1858 580 552 247 208 102 304 48 1810 1790 1094 54 696 138
internal_count=6160 4601 1559 2743 616 935 1808 943 827 631 274 357 1367 1265 441 387 1858 580 552 247 208 102 304 48 1810 1790 1094 54 696 138
is_linear=0
shrinkage=0.0103406


Tree=29
num_leaves=31
num_cat=0
split_feature=14 0 1 2 1 1 0 5 38 30 1 8 25 2 0 5 30 15 36 5 7 5 5 8 8 39 16 35 16 26
split_gain=75.4923 15.2099 12.1145 1.91447 1.71605 1.22993 1.11135 0.943211 0.790805 0.727351 0.650585 0.707699 0.686906 0.621852 0.604769 0.548883 0.456854 0.380461 0.391635 0.315721 0.284502 0.258743 0.19401 0.219924 0.17065 0.132476 0.0787674 0.0575021 0.0535221 0.0531045
threshold=0.52168204982502331 0.30305359155651196 -0.95674165838732084 -0.045980875240258755 -1.3387286154332736 -0.2513976986476763 -0.14555794651091297 -0.188975191028985 -0.10236462277769116 -0.55317843009035628 0.81337067738493007 0.39878793630459652 0.11231281198003329 -0.56338391367601737 -0.7382416231171226 -0.76245917110610284 0.50535354610485284 -0.39663020008784966 -0.41216344533319416 0.48612409331250683 -1.1712838498167195 0.32375016910908516 -0.188975191028985 -0.62723925767372324 -0.63650016164115075 0.013880351070482447 -0.59580333953084941 -0.30847149002410962 0.59561913071202943 0.10346585117227321
decision_type=2 2 2 2 2 2 2 2 2 2 2 2 2 2 2 2 2 2 2 2 2 2 2 2 2 2 2 2 2 2
left_child=1 3 4 9 -2 6 7 -5 17 -1 11 -7 -12 16 20 24 -11 25 27 -15 -4 -8 23 -17 -16 28 -10 -19 -3 -22
right_child=2 8 14 5 -6 10 21 -9 26 13 12 -13 -14 19 15 22 -18 18 -20 -21 29 -23 -24 -25 -26 -27 -28 -29 -30 -31
leaf_value=-0.0013241478057115089 0.003988400611449389 -0.001382619421718474 0 0.0012190619272169848 0.0025435094391343077 0.00012982515866176951 0.0010245058582482223 -0.00014138536709088612 -0.00054047660747725244 -0.00076528382060324438 -0.0013494177784685549 -0.00076296903086451315 0 -0.00018090937727949547 0.00040810609645070765 0 0.00010411133994265604 0 -0.0011126510402960767 0.00056946544246564746 0 0 0 0.0011342388268641348 -0.00056365622408211555 0 0.000246488223027787 -0.00036599916004037965 -0.0021406673596497511 0.0015963909231622149
leaf_weight=109 228 1510 27 63 388 593 269 326 21 356 86 112 38 366 50 21 37 41 358 67 20 26 32 311 30 20 33 62 108 452
leaf_count=109 228 1510 27 63 388 593 269 326 21 356 86 112 38 366 50 21 37 41 358 67 20 26 32 311 30 20 33 62 108 452
internal_value=0 -0.000666591 0.00196577 -0.000101068 0.00311149 0.00011697 0.000447572 3.56068e-05 -0.00130111 -0.000472601 -0.000134652 0 -0.000823384 -0.000337653 0.00119659 0.000818759 -0.000638455 -0.00133293 -0.000935998 -2.31737e-05 0.00149552 0.000929421 0.000989071 0.0010652 0 -0.00143333 0 -0.000147688 -0.00144518 0.00155841
internal_weight=0 4601 1559 2448 616 1513 684 389 2153 935 829 705 124 826 943 444 393 2099 461 433 499 295 364 332 80 1638 54 103 1618 472
internal_count=6160 4601 1559 2448 616 1513 684 389 2153 935 829 705 124 826 943 444 393 2099 461 433 499 295 364 332 80 1638 54 103 1618 472
is_linear=0
shrinkage=0.0103406


Tree=30
num_leaves=31
num_cat=0
split_feature=14 0 14 2 14 1 0 5 5 38 30 1 8 25 2 8 30 5 15 36 41 2 4 5 1 8 5 39 16 35
split_gain=73.9821 14.9032 11.8688 1.87532 1.47612 1.20441 1.08824 0.924151 0.787998 0.774834 0.711411 0.635436 0.693231 0.675146 0.608011 0.450691 0.449643 0.425765 0.367842 0.381548 0.312633 0.288062 0.256074 0.253699 0.251458 0.223775 0.245141 0.127199 0.077201 0.0565471
threshold=0.52168204982502331 0.30305359155651196 1.0343579194185566 -0.045980875240258755 0.70696176864404514 -0.2513976986476763 -0.14555794651091297 -0.188975191028985 -0.76245917110610284 -0.10236462277769116 -0.55317843009035628 0.81337067738493007 0.39878793630459652 0.11231281198003329 -0.56338391367601737 -0.5237330980157745 0.50535354610485284 -1.3917848452701491 -0.39663020008784966 -0.41216344533319416 -0.12902598630502324 -0.49034831521752836 0.61696398859462842 0.32375016910908516 -1.3387286154332736 -0.62723925767372324 -0.188975191028985 0.013880351070482447 -0.59580333953084941 -0.30847149002410962
decision_type=2 2 2 2 2 2 2 2 2 2 2 2 2 2 2 2 2 2 2 2 2 2 2 2 2 2 2 2 2 2
left_child=1 3 4 10 8 6 7 -5 22 18 -1 12 -7 -13 16 -6 -12 -4 27 29 -16 -17 -2 -8 -19 -10 -27 -3 -11 -20
right_child=2 9 17 5 15 11 23 -9 25 28 14 13 -14 -15 20 21 -18 24 19 -21 -22 -23 -24 -25 -26 26 -28 -29 -30 -31
leaf_value=-0.0013105553626142057 0.00037014981447142575 -0.0014303715571297719 0.00082506108046976191 0.0012066146807498289 0.0019212265065101045 0.00012848450990917893 0.0010139433246454325 -0.00013992694301500253 0 -0.00053509342176623982 -0.00075738811818078645 -0.0013355929351486025 -0.00075513557677350687 0 0.00053114327651553354 0 0.0001030576022967219 0.0040422761987091646 0 -0.0011011712850681754 -0.00018673451556869346 0.0013100108923876886 -0.00078636694116794397 0 0.0028172306157750993 0.0011644705239644494 0 0 0.00024399988596914265 -0.00036226283756185946
leaf_weight=109 51 1618 25 63 467 593 269 326 20 21 356 86 112 38 74 56 37 219 41 358 359 98 32 26 205 354 32 20 33 62
leaf_count=109 51 1618 25 63 467 593 269 326 20 21 356 86 112 38 74 56 37 219 41 358 359 98 32 26 205 354 32 20 33 62
internal_value=0 -0.000659845 0.00194605 -9.99738e-05 0.00134389 0.000115729 0.000442947 3.47922e-05 0.000841342 -0.00128794 -0.000467728 -0.0001331 0 -0.000813768 -0.000333943 0.00170956 -0.000631403 0.00339031 -0.00131943 -0.000926571 -2.25048e-05 0.000946752 0 0.000919787 0.00349807 0.00102927 0.00108446 -0.00141869 0 -0.000145428
internal_weight=0 4601 1559 2448 1110 1513 684 389 489 2153 935 829 705 124 826 621 393 449 2099 461 433 154 83 295 424 406 386 1638 54 103
internal_count=6160 4601 1559 2448 1110 1513 684 389 489 2153 935 829 705 124 826 621 393 449 2099 461 433 154 83 295 424 406 386 1638 54 103
is_linear=0
shrinkage=0.0103406


Tree=31
num_leaves=31
num_cat=0
split_feature=14 0 1 2 1 1 0 5 38 30 1 8 25 2 0 2 30 5 21 30 16 8 10 5 30 16 5 29 0 20
split_gain=72.5107 14.6004 11.6397 1.83697 1.63661 1.17943 1.0656 0.905475 0.759683 0.695807 0.620618 0.679058 0.6636 0.594466 0.579948 0.779473 0.442556 0.307021 0.280184 0.855215 0.476029 0.271996 0.265542 0.343237 0.258655 0.253126 0.248756 0.13949 0.0535629 0.0190196
threshold=0.52168204982502331 0.30305359155651196 -0.95674165838732084 -0.045980875240258755 -1.2221412446424191 -0.2513976986476763 -0.14555794651091297 -0.188975191028985 -0.15596736216520765 -0.55317843009035628 0.81337067738493007 0.39878793630459652 0.11231281198003329 -0.56338391367601737 -0.95952454144891886 -0.35498252293051397 0.50535354610485284 0.48612409331250683 -0.47678323161851971 -0.80739492899728649 -0.93566648645887462 -0.18237151828651244 -2.2454315577070973 -0.66049381055256562 0.51240381170411509 -0.70185897148542098 0.32375016910908516 -0.21976033130184677 0.3889230453939953 0.61027628760369523
decision_type=2 2 2 2 2 2 2 2 2 2 2 2 2 2 2 2 2 2 2 2 2 2 2 2 2 2 2 2 2 2
left_child=1 3 4 9 -2 6 7 -5 18 29 11 -7 -12 16 -4 22 -11 -15 -3 27 -21 24 -16 -24 -17 -10 -8 -20 -27 -1
right_child=2 8 14 5 -6 10 26 -9 25 13 12 -13 -14 17 15 21 -18 -19 19 20 -22 -23 23 -25 -26 28 -28 -29 -30 -31
leaf_value=0 0.0036327762499275768 -0.0018642447408141996 0.0020367586944041597 0.0011942943853696074 0.0022550078764373505 0.0001271576949230601 0.0010034897408876871 -0.00013848357011755346 -0.0011296723858536639 -0.00074957388276620011 -0.0013219097417425808 -0.0007473825443091881 0 -0.00017796602146978428 0.0012931957049773031 0.00015303979860367342 0.00010201454260562812 0.00056205109277232372 -0.0016026757397838906 0 -0.0010493533007231576 0 -9.2238582230564671e-05 0.00065692602971761374 0.001392304246886575 -0.00014964484509942793 0 -0.0002265561376999154 0.00034091764397024718 -0.0014753940114651557
leaf_weight=24 341 226 116 63 275 593 269 326 23 356 86 112 38 366 39 53 37 67 722 49 1015 28 112 96 499 38 26 39 41 85
leaf_count=24 341 226 116 63 275 593 269 326 23 356 86 112 38 366 39 53 37 67 722 49 1015 28 112 96 499 38 26 39 41 85
internal_value=0 -0.000653124 0.00192673 -9.88907e-05 0.00305012 0.0001145 0.00043837 3.39857e-05 -0.00127481 -0.000462905 -0.000131564 0 -0.000804252 -0.000330271 0.00117217 0.00102767 -0.000624423 -2.18437e-05 -0.00132057 -0.00124277 -0.00100133 0.00125405 0.00042235 0.000169984 0.00130572 -0.000179414 0.000910252 -0.00155569 0 -0.0012971
internal_weight=0 4601 1559 2448 616 1513 684 389 2153 935 829 705 124 826 943 827 393 433 2051 1825 1064 580 247 208 552 102 295 761 79 109
internal_count=6160 4601 1559 2448 616 1513 684 389 2153 935 829 705 124 826 943 827 393 433 2051 1825 1064 580 247 208 552 102 295 761 79 109
is_linear=0
shrinkage=0.0103406


Tree=32
num_leaves=31
num_cat=0
split_feature=14 14 1 1 0 2 0 5 5 5 14 5 9 6 8 36 3 41 39 4 38 8 8 8 11 8 7 25 36 26
split_gain=71.0694 14.3231 11.3892 2.27756 1.60149 1.04248 0.699388 0.569407 0.781953 0.628983 0.565237 0.759196 0.561072 0.500162 0.470559 0.302782 0.449589 0.26613 0.265449 0.234289 0.232717 0.217242 0.254313 0.183701 0.179499 0.148762 0.107312 0.0861224 0.0820652 0.108254
threshold=0.52168204982502331 -0.38110936808137263 -0.95674165838732084 -0.2287852384987028 -1.1667179014243261 0.13364496255252276 -0.20386310072753352 0.16351537403718508 -0.18206495623674204 0.33007667465336504 0.72983924083456708 -0.76245917110610284 -0.73817753887945481 0.45407607364044633 -0.5237330980157745 0.44010535488415897 -0.48153673086710308 -0.21747244482254707 1.0000000180025095e-35 0.61696398859462842 0.30136659167705665 -0.21944818976276478 -0.62723925767372324 0.11757925120756692 0.55079372004119265 0.77771031018617187 -1.1477452787079947 0.29866888519134782 -0.16271710435441403 -0.8445463812436288
decision_type=2 2 2 2 2 2 2 2 2 2 2 2 2 2 2 2 2 2 2 2 2 2 2 2 2 2 2 2 2 2
left_child=1 18 4 5 -2 23 15 8 -7 -9 11 19 17 -14 -12 16 -5 -8 28 -4 -17 22 -13 24 -3 -20 -16 -25 29 -1
right_child=2 3 10 6 -6 7 12 9 -10 -11 14 21 13 -15 26 20 -18 -19 25 -21 -22 -23 -24 27 -26 -27 -28 -29 -30 -31
leaf_value=-0.0016051478332463418 0.003570754267672286 -0.00060400370309197818 0.00036209068256428409 0.0006871514474121877 0.0021974449106537332 0.0011131229082597513 0 0.0010911231751950987 -2.5286727320896128e-05 0 0.0017414407500570867 0 -0.00049825437473313011 0 0 0 -9.5187362399005223e-05 -0.0018678299181428947 0 -0.0007550227507201919 -0.000822667384134117 0.00011595258473023972 0.0012008870636636688 -9.1794089693482184e-05 0 -0.00082898336195670185 0.0007242841042468972 0.00044526274277806343 0 -0.0012237512982361737
leaf_weight=694 354 146 52 124 262 74 20 225 291 41 319 24 1181 183 20 50 131 53 25 31 66 67 357 85 31 23 73 42 22 1094
leaf_count=694 354 146 52 124 262 74 20 225 291 41 319 24 1181 183 20 50 131 53 25 31 66 67 357 85 31 23 73 42 22 1094
internal_value=0 -0.00064659 0.00190749 -0.000164268 0.00301896 0.000238419 -0.000382312 0.000487163 0.000159078 0.000869203 0.00116075 0.000851194 -0.000485685 -0.000419266 0.00151443 0 0.000217035 -0.00146893 -0.00134875 0 -0.000417164 0.00101951 0.00113148 -0.000219759 -0.000439619 -9.60592e-05 0.000538897 0 -0.00137215 -0.00138233
internal_weight=0 4601 1559 2743 616 935 1808 631 365 266 943 531 1437 1364 412 371 255 73 1858 83 116 448 381 304 177 48 93 127 1810 1788
internal_count=6160 4601 1559 2743 616 935 1808 631 365 266 943 531 1437 1364 412 371 255 73 1858 83 116 448 381 304 177 48 93 127 1810 1788
is_linear=0
shrinkage=0.0103406


Tree=33
num_leaves=31
num_cat=0
split_feature=14 0 14 22 14 4 8 5 8 1 5 38 1 26 5 8 30 15 36 20 28 7 2 20 4 1 8 5 39 16
split_gain=69.6516 14.0404 11.1492 1.78024 1.38617 0.940959 0.923732 1.31975 0.913881 0.956852 0.748896 0.735257 0.575025 0.431565 0.417768 0.412502 0.346395 0.338189 0.37595 0.304566 0.279122 0.274247 0.273341 0.2691 0.244073 0.227363 0.213974 0.230986 0.118442 0.0729056
threshold=0.52168204982502331 0.30305359155651196 1.0343579194185566 0.17161652612006648 0.70696176864404514 0.55970620198960497 0.11757925120756692 0.33007667465336504 0.31886990488554051 0.62780914978376556 -0.76245917110610284 -0.10236462277769116 -0.57365129985580843 -0.12793068297655449 -1.3917848452701491 -0.5237330980157745 0.50535354610485284 -0.39663020008784966 -0.41216344533319416 0.38563359646838813 0.08634155279490098 1.0874002294328886 -0.49034831521752836 0.21902290972169922 0.61696398859462842 -1.3387286154332736 -0.62723925767372324 -0.188975191028985 0.013880351070482447 -0.59580333953084941
decision_type=2 2 2 2 2 2 2 2 2 2 2 2 2 2 2 2 2 2 2 2 2 2 2 2 2 2 2 2 2 2
left_child=1 3 4 5 10 6 12 -8 9 19 24 17 -1 -11 -4 -6 20 28 -19 -5 -7 23 -17 -10 -2 -16 -12 -28 -3 -13
right_child=2 11 14 8 15 16 7 -9 21 13 26 29 -14 -15 25 22 -18 18 -20 -21 -22 -23 -24 -25 -26 -27 27 -29 -30 -31
leaf_value=0.00073525998642478142 0.00035496583982579902 -0.0013880761801046645 0.00076028943533297847 -0.00027336044012594816 0.0018642676558210218 0 0.00093589648966408583 -7.5693835412285338e-05 0 -0.00095263922331072204 0 -0.00051646796927345626 -0.00011095188711209184 0 0.0039264123977666302 0 6.7782106794825935e-05 -0.00012518238190103141 -0.001070120146293134 0.00026908693557452359 -0.0010901530041187836 0 0.0012697416643856155 -0.0015510700742630639 -0.00077242529618042196 0.0027277453699193024 0.0011296139523898731 0 0 0.00024203451207097812
leaf_weight=98 51 1618 25 172 467 77 351 177 35 213 20 21 655 88 219 56 36 103 358 273 99 49 98 125 32 205 354 32 20 33
leaf_count=98 51 1618 25 172 467 77 351 177 35 213 20 21 655 88 219 56 36 103 358 273 99 49 98 125 32 205 354 32 20 33
internal_value=0 -0.000640079 0.0018884 -9.64289e-05 0.00130394 0.000117286 0.00023247 0.000563723 -0.00044887 -0.000247485 0.000814677 -0.00124974 0 -0.000700002 0.00328904 0.00165921 -0.000493813 -0.00128041 -0.000897895 1.96166e-05 -0.00070855 -0.00107966 0.000916626 -0.00130508 0 0.00339477 0.000997978 0.00105195 -0.00137678 0
internal_weight=0 4601 1559 2448 1110 1493 1281 528 955 746 489 2153 753 301 449 621 212 2099 461 445 176 209 154 160 83 424 406 386 1638 54
internal_count=6160 4601 1559 2448 1110 1493 1281 528 955 746 489 2153 753 301 449 621 212 2099 461 445 176 209 154 160 83 424 406 386 1638 54
is_linear=0
shrinkage=0.0103406


Tree=34
num_leaves=31
num_cat=0
split_feature=14 0 1 2 0 1 0 5 38 30 1 8 25 2 0 2 40 41 15 36 8 26 10 5 5 39 16 16 35 20
split_gain=68.2787 13.747 10.9418 1.75082 1.51412 1.10905 1.02326 0.864186 0.720351 0.667504 0.591431 0.655939 0.646375 0.569334 0.540459 0.740722 0.460333 0.401613 0.325719 0.365187 0.256632 0.283487 0.255077 0.330347 0.238532 0.113572 0.0714556 0.0625913 0.0526887 0.0172985
